DATE: 2024-12-12 UNITS: metal CONTRIBUTOR: Xiaowang Zhou xzhou@sandia.gov, Lucas Hale lucas.hale@nist.gov, and Germain Clavier g.m.g.c.clavier@tue.nl/germain.clavier@gmail.com
 CITATION: X. W. Zhou, R. A. Johnson, H. N. G. Wadley, Phys. Rev. B, 69, 144113(2004)
Generated by create_eam+zbl.py
6     V Mo W Ta Ti Zr         
5000  3.3808207584247567e-02   5000  1.4313599388885425e-03   7.1553683345038239e+00  
   23        50.94150         3.66941      fcc
   0.0000000000000000E+00   3.5886861590940278E-01   3.4453877333792216E-01   3.3024642213959776E-01   3.1599151216847110E-01
   3.0177399327858545E-01   2.8759381532397965E-01   2.7345092815869743E-01   2.5934528163678028E-01   2.4527682561226705E-01
   2.3124550993920190E-01   2.1725128447162545E-01   2.0329409906357787E-01   1.8937390356910289E-01   1.7549064784223933E-01
   1.6164428173703094E-01   1.4783475510751920E-01   1.3406201780774296E-01   1.2032601969174594E-01   1.0662671061356965E-01
   9.2964040427253813E-02   7.9337958986842150E-02   6.5748416146373945E-02   5.2195361759891590E-02   3.8678745681437476E-02
   2.5198517765050887E-02   1.1754627864774658E-02  -1.6529741653497076E-03  -1.5024338471280263E-02  -2.8359515198977725E-02
  -4.1658554494397926E-02  -5.4921506503502027E-02  -6.8148421372246304E-02  -8.1339349246590142E-02  -9.4494340272492927E-02
  -1.0761344459591271E-01  -1.2069671236280577E-01  -1.3374419371913504E-01  -1.4675593881085591E-01  -1.5973199778392866E-01
  -1.7267242078431000E-01  -1.8557725795795932E-01  -1.9844655945083645E-01  -2.1128037540889899E-01  -2.2407875597810323E-01
  -2.3684175130441165E-01  -2.4956941153378054E-01  -2.6226178681216838E-01  -2.7491892728553502E-01  -2.8754088309983761E-01
  -3.0012770440103642E-01  -3.1267944133508863E-01  -3.2519614404795227E-01  -3.3767786268558675E-01  -3.5012464739395188E-01
  -3.6253654831900350E-01  -3.7491361560670233E-01  -3.8725589940300598E-01  -3.9956344985387293E-01  -4.1183631710526258E-01
  -4.2407455130313254E-01  -4.3627820259344130E-01  -4.4844732112214869E-01  -4.6058195703521276E-01  -4.7268216047859068E-01
  -4.8474798159824228E-01  -4.9677947054012606E-01  -5.0877667745020050E-01  -5.2073965247442500E-01  -5.3266844575875449E-01
  -5.4456310744915237E-01  -5.5642368769157535E-01  -5.6825023663198060E-01  -5.8004280441632838E-01  -5.9180144119057676E-01
  -6.0352619710068289E-01  -6.1521712229260794E-01  -6.2687426691230841E-01  -6.3849768110574368E-01  -6.5008741501887291E-01
  -6.6164351879765348E-01  -6.7316604258804391E-01  -6.8465503653600379E-01  -6.9611055078749029E-01  -7.0753263548846368E-01
  -7.1892134078488179E-01  -7.3027671682270201E-01  -7.4159881374788506E-01  -7.5288768170638765E-01  -7.6414337084416895E-01
  -7.7536593130718767E-01  -7.8655541324140299E-01  -7.9771186679277184E-01  -8.0883534210725450E-01  -8.1992588933080746E-01
  -8.3098355860939122E-01  -8.4200840008896427E-01  -8.5300046391548423E-01  -8.6395980023490959E-01  -8.7488645919319841E-01
  -8.8578049093631206E-01  -8.9664194561020683E-01  -9.0747087336084098E-01  -9.1826732433417368E-01  -9.2903134867616388E-01
  -9.3976299653276874E-01  -9.5046231804994896E-01  -9.6112936337366150E-01  -9.7176418264986575E-01  -9.8236682602451930E-01
  -9.9293734364358199E-01  -1.0034757856530105E+00  -1.0139822021987659E+00  -1.0244566434268050E+00  -1.0348991594830859E+00
  -1.0453098005135688E+00  -1.0556886166642110E+00  -1.0660356580809720E+00  -1.0763509749098104E+00  -1.0866346172966841E+00
  -1.0968866353875502E+00  -1.1071070793283704E+00  -1.1172959992651008E+00  -1.1274534453437017E+00  -1.1375794677101303E+00
  -1.1476741165103463E+00  -1.1577374418903068E+00  -1.1677694939959717E+00  -1.1777703229732981E+00  -1.1877399789682463E+00
  -1.1976785121267746E+00  -1.2075859725948399E+00  -1.2174624105184020E+00  -1.2273078760434193E+00  -1.2371224193158512E+00
  -1.2469060904816553E+00  -1.2566589396867891E+00  -1.2663810170772134E+00  -1.2760723727988847E+00  -1.2857330569977641E+00
  -1.2953631198198075E+00  -1.3049626114109747E+00  -1.3145315819172241E+00  -1.3240700814845145E+00  -1.3335781602588039E+00
  -1.3430558683860512E+00  -1.3525032560122154E+00  -1.3619203732832543E+00  -1.3713072703451263E+00  -1.3806639973437906E+00
  -1.3899906044252057E+00  -1.3992871417353303E+00  -1.4085536594201225E+00  -1.4177902076255406E+00  -1.4269968364975434E+00
  -1.4361735961820905E+00  -1.4453205368251385E+00  -1.4544377085726474E+00  -1.4635251615705760E+00  -1.4725829459648820E+00
  -1.4816111119015243E+00  -1.4906097095264599E+00  -1.4995787889856504E+00  -1.5085184004250529E+00  -1.5174285939906249E+00
  -1.5263094198283260E+00  -1.5351609280841145E+00  -1.5439831689039500E+00  -1.5527761924337895E+00  -1.5615400488195927E+00
  -1.5702747882073165E+00  -1.5789804607429216E+00  -1.5876571165723650E+00  -1.5963048058416065E+00  -1.6049235786966030E+00
  -1.6135134852833151E+00  -1.6220745757477000E+00  -1.6306069002357153E+00  -1.6391105088933215E+00  -1.6475854518664774E+00
  -1.6560317793011399E+00  -1.6644495413432685E+00  -1.6728387881388207E+00  -1.6811995698337561E+00  -1.6895319365740336E+00
  -1.6978359385056110E+00  -1.7061116257744473E+00  -1.7143590485264995E+00  -1.7225782569077286E+00  -1.7307693010640914E+00
  -1.7389322311415472E+00  -1.7470670972860549E+00  -1.7551739496435719E+00  -1.7632528383600581E+00  -1.7713038135814705E+00
  -1.7793269254537687E+00  -1.7873222241229116E+00  -1.7952897597348576E+00  -1.8032295824355640E+00  -1.8111417423709903E+00
  -1.8190262896870948E+00  -1.8268832745298369E+00  -1.8347127470451745E+00  -1.8425147573790661E+00  -1.8502893556774698E+00
  -1.8580365920863446E+00  -1.8657565167516497E+00  -1.8734491798193429E+00  -1.8811146314353833E+00  -1.8887529217457288E+00
  -1.8963641008963381E+00  -1.9039482190331694E+00  -1.9115053263021822E+00  -1.9190354728493351E+00  -1.9265387088205865E+00
  -1.9340150843618928E+00  -1.9414646496192161E+00  -1.9488874547385122E+00  -1.9562835498657416E+00  -1.9636529851468618E+00
  -1.9709958107278309E+00  -1.9783120767546083E+00  -1.9856018333731518E+00  -1.9928651307294210E+00  -2.0001020189693737E+00
  -2.0073125482389695E+00  -2.0144967686841651E+00  -2.0216547304509209E+00  -2.0287864836851934E+00  -2.0358920785329433E+00
  -2.0429715651401286E+00  -2.0500249936527073E+00  -2.0570524142166371E+00  -2.0640538769778782E+00  -2.0710294320823888E+00
  -2.0779791296761276E+00  -2.0849030199050524E+00  -2.0918011529151221E+00  -2.0986735788522952E+00  -2.1055203478625302E+00
  -2.1123415100917864E+00  -2.1191371156860210E+00  -2.1259072147911939E+00  -2.1326518575532627E+00  -2.1393710941181863E+00
  -2.1460649746319231E+00  -2.1527335492404323E+00  -2.1593768680896721E+00  -2.1659949813256008E+00  -2.1725879390941762E+00
  -2.1791557915413593E+00  -2.1856985888131062E+00  -2.1922163810553763E+00  -2.1987092184141281E+00  -2.2051771510353211E+00
  -2.2116202290649123E+00  -2.2180385026488612E+00  -2.2244320219331257E+00  -2.2308008370636654E+00  -2.2371449981864382E+00
  -2.2434645554474022E+00  -2.2497595589925163E+00  -2.2560300589677396E+00  -2.2622761055190304E+00  -2.2684977487923472E+00
  -2.2746950389336487E+00  -2.2808680260888927E+00  -2.2870167604040379E+00  -2.2931412920250440E+00  -2.2992416710978683E+00
  -2.3053179477684700E+00  -2.3113701721828077E+00  -2.3173983944868395E+00  -2.3234026648265242E+00  -2.3293830333478209E+00
  -2.3353395501966876E+00  -2.3412722655190819E+00  -2.3471812294609644E+00  -2.3530664921682924E+00  -2.3589281037870236E+00
  -2.3647661144631185E+00  -2.3705805743425348E+00  -2.3763715335712310E+00  -2.3821390422951652E+00  -2.3878831506602962E+00
  -2.3936039088125840E+00  -2.3993013668979852E+00  -2.4049755750624588E+00  -2.4106265834519638E+00  -2.4162544422124581E+00
  -2.4218592014899021E+00  -2.4274409114302520E+00  -2.4329996221794676E+00  -2.4385353838835075E+00  -2.4440482466883298E+00
  -2.4495382607398928E+00  -2.4550054761841560E+00  -2.4604499431670774E+00  -2.4658717118346156E+00  -2.4712708323327282E+00
  -2.4766473548073753E+00  -2.4820013294045156E+00  -2.4873328062701061E+00  -2.4926418355501068E+00  -2.4979284673904747E+00
  -2.5031927519371702E+00  -2.5084347393361508E+00  -2.5136544797333737E+00  -2.5188520232748006E+00  -2.5240274201063881E+00
  -2.5291807203740952E+00  -2.5343119742238795E+00  -2.5394212318017004E+00  -2.5445085432535173E+00  -2.5495739587252872E+00
  -2.5546175283629697E+00  -2.5596393023125223E+00  -2.5646393307199049E+00  -2.5696176637310755E+00  -2.5745743514919921E+00
  -2.5795094441486137E+00  -2.5844229918468993E+00  -2.5893150447328068E+00  -2.5941856529522949E+00  -2.5990348666513219E+00
  -2.6038627359758468E+00  -2.6086693110718286E+00  -2.6134546420852249E+00  -2.6182187791619942E+00  -2.6229617724480963E+00
  -2.6276836720894883E+00  -2.6323845282321301E+00  -2.6370643910219789E+00  -2.6417233106049944E+00  -2.6463613371271340E+00
  -2.6509785207343572E+00  -2.6555749115726228E+00  -2.6601505597878887E+00  -2.6647055155261135E+00  -2.6692398289332551E+00
  -2.6737535501552738E+00  -2.6782467293381265E+00  -2.6827194166277724E+00  -2.6871716621701704E+00  -2.6916035161112788E+00
  -2.6960150285970554E+00  -2.7004062497734602E+00  -2.7047772297864507E+00  -2.7091280187819864E+00  -2.7134586669060234E+00
  -2.7177692243045239E+00  -2.7220597411234437E+00  -2.7263302675087431E+00  -2.7305808536063787E+00  -2.7348115495623100E+00
  -2.7390224055224968E+00  -2.7432134716328962E+00  -2.7473847980394677E+00  -2.7515364348881679E+00  -2.7556684323249576E+00
  -2.7597808404957944E+00  -2.7638737095466368E+00  -2.7679470896234437E+00  -2.7720010308721736E+00  -2.7760355834387846E+00
  -2.7800507974692357E+00  -2.7840467231094852E+00  -2.7880234105054922E+00  -2.7919809098032147E+00  -2.7959192711486112E+00
  -2.7998385446876402E+00  -2.8037387805662610E+00  -2.8076200289304318E+00  -2.8114823399261106E+00  -2.8153257636992564E+00
  -2.8191503503958275E+00  -2.8229561501617830E+00  -2.8267432131430814E+00  -2.8305115894856812E+00  -2.8342613293355394E+00
  -2.8379924828386169E+00  -2.8417051001408713E+00  -2.8453992313882610E+00  -2.8490749267267441E+00  -2.8527322363022800E+00
  -2.8563712102608281E+00  -2.8599918987483446E+00  -2.8635943519107894E+00  -2.8671786198941209E+00  -2.8707447528442982E+00
  -2.8742928009072792E+00  -2.8778228142290221E+00  -2.8813348429554861E+00  -2.8848289372326299E+00  -2.8883051472064123E+00
  -2.8917635230227905E+00  -2.8952041148277239E+00  -2.8986269727671714E+00  -2.9020321469870916E+00  -2.9054196876334419E+00
  -2.9087896448521815E+00  -2.9121420687892696E+00  -2.9154770095906639E+00  -2.9187945174023233E+00  -2.9220946423702063E+00
  -2.9253774346402710E+00  -2.9286429443584776E+00  -2.9318912216707829E+00  -2.9351223167231457E+00  -2.9383362796615251E+00
  -2.9415331606318795E+00  -2.9447130097801675E+00  -2.9478758772523470E+00  -2.9510218131943780E+00  -2.9541508677522175E+00
  -2.9572630910718254E+00  -2.9603585332991589E+00  -2.9634372445801773E+00  -2.9664992750608397E+00  -2.9695446748871035E+00
  -2.9725734942049278E+00  -2.9755857831602710E+00  -2.9785815918990926E+00  -2.9815609705673500E+00  -2.9845239693110015E+00
  -2.9874706382760072E+00  -2.9904010276083239E+00  -2.9933151874539123E+00  -2.9962131679587287E+00  -2.9990950192687320E+00
  -3.0019607915298820E+00  -3.0048105348881364E+00  -3.0076442994894546E+00  -3.0104621354797936E+00  -3.0132640930051133E+00
  -3.0160502222113723E+00  -3.0188205732445281E+00  -3.0215751962505397E+00  -3.0243141413753665E+00  -3.0270374587649660E+00
  -3.0297451985652972E+00  -3.0324374109223178E+00  -3.0351141459819879E+00  -3.0377754538902648E+00  -3.0404213847931079E+00
  -3.0430519888364751E+00  -3.0456673161663255E+00  -3.0482674169286170E+00  -3.0508523412693096E+00  -3.0534221393343590E+00
  -3.0559768612697269E+00  -3.0585165572213704E+00  -3.0610412773352480E+00  -3.0635510717573182E+00  -3.0660459906335400E+00
  -3.0685260841098718E+00  -3.0709914023322717E+00  -3.0734419954466992E+00  -3.0758779135991117E+00  -3.0782992069354687E+00
  -3.0807059256017286E+00  -3.0830981197438492E+00  -3.0854758395077897E+00  -3.0878391350395087E+00  -3.0901880564849646E+00
  -3.0925226539901165E+00  -3.0948429777009214E+00  -3.0971490777633397E+00  -3.0994410043233289E+00  -3.1017188075268480E+00
  -3.1039825375198555E+00  -3.1062322444483090E+00  -3.1084679784581684E+00  -3.1106897896953920E+00  -3.1128977283059376E+00
  -3.1150918444357640E+00  -3.1172721882308303E+00  -3.1194388098370949E+00  -3.1215917594005158E+00  -3.1237310870670516E+00
  -3.1258568429826625E+00  -3.1279690772933053E+00  -3.1300678401449389E+00  -3.1321531816835213E+00  -3.1342251520550124E+00
  -3.1362838014053698E+00  -3.1383291798805528E+00  -3.1403613376265187E+00  -3.1423803247892272E+00  -3.1443861915146369E+00
  -3.1463789879487059E+00  -3.1483587642373925E+00  -3.1503255705266553E+00  -3.1522794569624537E+00  -3.1542204736907453E+00
  -3.1561486708574891E+00  -3.1580640986086435E+00  -3.1599668070901674E+00  -3.1618568464480190E+00  -3.1637342668281572E+00
  -3.1655991183765395E+00  -3.1674514512391259E+00  -3.1692913155618743E+00  -3.1711187614907432E+00  -3.1729338391716908E+00
  -3.1747365987506768E+00  -3.1765270903736584E+00  -3.1783053641865950E+00  -3.1800714703354447E+00  -3.1818254589661672E+00
  -3.1835673802247193E+00  -3.1852972842570608E+00  -3.1870152212091494E+00  -3.1887212412269448E+00  -3.1904153944564047E+00
  -3.1920977310434875E+00  -3.1937683011341518E+00  -3.1954271548743574E+00  -3.1970743424100609E+00  -3.1987099138872224E+00
  -3.2003339194518001E+00  -3.2019464092497518E+00  -3.2035474334270373E+00  -3.2051370421296137E+00  -3.2067152855034409E+00
  -3.2082822136944760E+00  -3.2098378768486793E+00  -3.2113823251120084E+00  -3.2129156086304222E+00  -3.2144377775498785E+00
  -3.2159488820163364E+00  -3.2174489721757542E+00  -3.2189380981740912E+00  -3.2204163101573049E+00  -3.2218836582713548E+00
  -3.2233401926621990E+00  -3.2247859634757958E+00  -3.2262210208581048E+00  -3.2276454149550826E+00  -3.2290591959126900E+00
  -3.2304624138768840E+00  -3.2318551189936238E+00  -3.2332373614088672E+00  -3.2346091912685737E+00  -3.2359706587187023E+00
  -3.2373218139052100E+00  -3.2386627069740559E+00  -3.2399933880711993E+00  -3.2413139073425987E+00  -3.2426243149342113E+00
  -3.2439246609919969E+00  -3.2452149956619136E+00  -3.2464953690899203E+00  -3.2477658314219751E+00  -3.2490264328040368E+00
  -3.2502772233820640E+00  -3.2515182533020153E+00  -3.2527495727098494E+00  -3.2539712317515237E+00  -3.2551832805729983E+00
  -3.2563857693202314E+00  -3.2575787481391805E+00  -3.2587622671758054E+00  -3.2599363765760634E+00  -3.2611011264859151E+00
  -3.2622565670513173E+00  -3.2634027484182289E+00  -3.2645397207326079E+00  -3.2656675341404147E+00  -3.2667862387876063E+00
  -3.2678958848201414E+00  -3.2689965223839788E+00  -3.2700882016250770E+00  -3.2711709726893954E+00  -3.2722448857228912E+00
  -3.2733099908715233E+00  -3.2743663382812507E+00  -3.2754139780980318E+00  -3.2764529604678252E+00  -3.2774833355365889E+00
  -3.2785051534502823E+00  -3.2795184643548638E+00  -3.2805233183962916E+00  -3.2815197657205237E+00  -3.2825078564735199E+00
  -3.2834876408012379E+00  -3.2844591688496370E+00  -3.2854224907646747E+00  -3.2863776566923102E+00  -3.2873247167785027E+00
  -3.2882637211692098E+00  -3.2891947200103897E+00  -3.2901177634480021E+00  -3.2910329016280051E+00  -3.2919401846963572E+00
  -3.2928396627990169E+00  -3.2937313860819422E+00  -3.2946154046910925E+00  -3.2954917687724263E+00  -3.2963605284719018E+00
  -3.2972217339354777E+00  -3.2980754353091126E+00  -3.2989216827387651E+00  -3.2997605263703940E+00  -3.3005920163499565E+00
  -3.3014162028234129E+00  -3.3022331359367212E+00  -3.3030428658358399E+00  -3.3038454426667268E+00  -3.3046409165753414E+00
  -3.3054293377076420E+00  -3.3062107562095875E+00  -3.3069852222271354E+00  -3.3077527859062448E+00  -3.3085134973928749E+00
  -3.3092674068329835E+00  -3.3100145643725298E+00  -3.3107550201574711E+00  -3.3114888243337677E+00  -3.3122160270473771E+00
  -3.3129366784442578E+00  -3.3136508286703679E+00  -3.3143585278716672E+00  -3.3150598261941138E+00  -3.3157547737836661E+00
  -3.3164434207862827E+00  -3.3171258173479221E+00  -3.3178020136145427E+00  -3.3184720597321036E+00  -3.3191360058465622E+00
  -3.3197939021038789E+00  -3.3204457986500109E+00  -3.3210917456309170E+00  -3.3217317931925554E+00  -3.3223659914808854E+00
  -3.3229943906418651E+00  -3.3236170408214538E+00  -3.3242339921656083E+00  -3.3248452948202893E+00  -3.3254509989314540E+00
  -3.3260511546450613E+00  -3.3266458121070706E+00  -3.3272350214634381E+00  -3.3278188328601246E+00  -3.3283972964430881E+00
  -3.3289704623582872E+00  -3.3295383807516794E+00  -3.3301011017692246E+00  -3.3306586755568803E+00  -3.3312111522606065E+00
  -3.3317585820263602E+00  -3.3323010150001009E+00  -3.3328385013277870E+00  -3.3333710911553767E+00  -3.3338988346288283E+00
  -3.3344217818941018E+00  -3.3349399830971547E+00  -3.3354534883839451E+00  -3.3359623479004319E+00  -3.3364666117925745E+00
  -3.3369663302063302E+00  -3.3374615532876590E+00  -3.3379523311825179E+00  -3.3384387140368661E+00  -3.3389207519966626E+00
  -3.3393984952078655E+00  -3.3398719938164341E+00  -3.3403412979683247E+00  -3.3408064578094989E+00  -3.3412675234859135E+00
  -3.3417245451435265E+00  -3.3421775729282981E+00  -3.3426266569861860E+00  -3.3430718474631487E+00  -3.3435131945051451E+00
  -3.3439507482581332E+00  -3.3443845588680721E+00  -3.3448146764809201E+00  -3.3452411512426359E+00  -3.3456640332991774E+00
  -3.3460833727965040E+00  -3.3464992198805743E+00  -3.3469116246973463E+00  -3.3473206373927789E+00  -3.3477263081128306E+00
  -3.3481286870034594E+00  -3.3485278242106249E+00  -3.3489237698802845E+00  -3.3493165741583977E+00  -3.3497062871909224E+00
  -3.3500929591238182E+00  -3.3504766401030426E+00  -3.3508573802745540E+00  -3.3512352297843120E+00  -3.3516102387782745E+00
  -3.3519824574023995E+00  -3.3523519358026466E+00  -3.3527187241249741E+00  -3.3531578089232661E+00  -3.3535962678029883E+00
  -3.3540312073762162E+00  -3.3544626261838144E+00  -3.3548905227666457E+00  -3.3553148956655727E+00  -3.3557357434214601E+00
  -3.3561530645751709E+00  -3.3565668576675685E+00  -3.3569771212395163E+00  -3.3573838538318772E+00  -3.3577870539855152E+00
  -3.3581867202412936E+00  -3.3585828511400755E+00  -3.3589754452227245E+00  -3.3593645010301043E+00  -3.3597500171030776E+00
  -3.3601319919825090E+00  -3.3605104242092607E+00  -3.3608853123241960E+00  -3.3612566548681797E+00  -3.3616244503820734E+00
  -3.3619886974067423E+00  -3.3623493944830485E+00  -3.3627065401518554E+00  -3.3630601329540277E+00  -3.3634101714304276E+00
  -3.3637566541219184E+00  -3.3640995795693640E+00  -3.3644389463136286E+00  -3.3647747528955736E+00  -3.3651069978560644E+00
  -3.3654356797359632E+00  -3.3657607970761334E+00  -3.3660823484174389E+00  -3.3664003323007434E+00  -3.3667147472669097E+00
  -3.3670255918568008E+00  -3.3673328646112810E+00  -3.3676365640712138E+00  -3.3679366887774616E+00  -3.3682332372708883E+00
  -3.3685262080923573E+00  -3.3688155997827325E+00  -3.3691014108828763E+00  -3.3693836399336536E+00  -3.3696622854759259E+00
  -3.3699373460505577E+00  -3.3702088201984126E+00  -3.3704767064603534E+00  -3.3707410033772436E+00  -3.3710017094899474E+00
  -3.3712588233393270E+00  -3.3715123434662462E+00  -3.3717622684115689E+00  -3.3720085967161584E+00  -3.3722513269208774E+00
  -3.3724904575665904E+00  -3.3727259871941593E+00  -3.3729579143444490E+00  -3.3731862375583219E+00  -3.3734109553766420E+00
  -3.3736320663402721E+00  -3.3738495689900763E+00  -3.3740634618669176E+00  -3.3742737435116599E+00  -3.3744804124651653E+00
  -3.3746834672682988E+00  -3.3748829064619228E+00  -3.3750787285869008E+00  -3.3752709321840966E+00  -3.3754595157943732E+00
  -3.3756444779585948E+00  -3.3758258172176236E+00  -3.3760035321123234E+00  -3.3761776211835581E+00  -3.3763480829721906E+00
  -3.3765149160190848E+00  -3.3766781188651036E+00  -3.3768376900511106E+00  -3.3769936281179693E+00  -3.3771459316065431E+00
  -3.3772945990576946E+00  -3.3774396290122888E+00  -3.3775810200111875E+00  -3.3777187705952554E+00  -3.3778528793053550E+00
  -3.3779833446823497E+00  -3.3781101652671035E+00  -3.3782333396004796E+00  -3.3783528662233415E+00  -3.3784687436765517E+00
  -3.3785809705009746E+00  -3.3786895452374734E+00  -3.3787944664269114E+00  -3.3788957326101521E+00  -3.3789933423280587E+00
  -3.3790872941214949E+00  -3.3791775865313234E+00  -3.3792642180984087E+00  -3.3793471873636132E+00  -3.3794264928678008E+00
  -3.3795021331518349E+00  -3.3795741067565790E+00  -3.3796424122228959E+00  -3.3797070480916496E+00  -3.3797680129037033E+00
  -3.3798253051999203E+00  -3.3798789235211646E+00  -3.3799288664082985E+00  -3.3799751324021865E+00  -3.3800177200436914E+00
  -3.3800566278736768E+00  -3.3800918544330059E+00  -3.3801233982625418E+00  -3.3801512579031487E+00  -3.3801754318956898E+00
  -3.3801959187810282E+00  -3.3802127171000280E+00  -3.3802258253935511E+00  -3.3802352422024620E+00  -3.3802409660676247E+00
  -3.3802429955299012E+00  -3.3802413291301554E+00  -3.3802359654092511E+00  -3.3802269029080514E+00  -3.3802141401674195E+00
  -3.3801976757282199E+00  -3.3801775081313141E+00  -3.3801536359175670E+00  -3.3801260576278418E+00  -3.3800947718030017E+00
  -3.3800597769839089E+00  -3.3800210717114290E+00  -3.3799786545264241E+00  -3.3799325239697580E+00  -3.3798826785822942E+00
  -3.3798291169048951E+00  -3.3797718374784251E+00  -3.3797108388437480E+00  -3.3796461195417260E+00  -3.3795776781132227E+00
  -3.3795055130991023E+00  -3.3794296230402279E+00  -3.3793500064774626E+00  -3.3792666619516702E+00  -3.3791795880037134E+00
  -3.3790887831744563E+00  -3.3789942460047624E+00  -3.3788959750354945E+00  -3.3787939688075159E+00  -3.3786882258616906E+00
  -3.3785787447388818E+00  -3.3784655239799530E+00  -3.3783485621257672E+00  -3.3782278577171887E+00  -3.3781034092950795E+00
  -3.3779752154003044E+00  -3.3778432745737255E+00  -3.3777075853562075E+00  -3.3775681462886129E+00  -3.3774249559118057E+00
  -3.3772780127666486E+00  -3.3771273153940053E+00  -3.3769728623347399E+00  -3.3768146521297147E+00  -3.3766526833197932E+00
  -3.3764869544458400E+00  -3.3763174640487175E+00  -3.3761442106692892E+00  -3.3759671928484183E+00  -3.3757864091269689E+00
  -3.3756018580458034E+00  -3.3754135381457862E+00  -3.3752214479677805E+00  -3.3750255860526490E+00  -3.3748259509412564E+00
  -3.3746225411744648E+00  -3.3744153552931375E+00  -3.3742043918381395E+00  -3.3739896493503325E+00  -3.3737711263705812E+00
  -3.3735488214397482E+00  -3.3733227330986968E+00  -3.3730928598882910E+00  -3.3728592003493936E+00  -3.3726217530228686E+00
  -3.3723805164495793E+00  -3.3721354891703887E+00  -3.3718866697261602E+00  -3.3716340566577574E+00  -3.3713776485060438E+00
  -3.3711174438118832E+00  -3.3708534411161382E+00  -3.3705856389596724E+00  -3.3703140358833497E+00  -3.3700386304280321E+00
  -3.3697594211345847E+00  -3.3694764065438703E+00  -3.3691895851967528E+00  -3.3688989556340942E+00  -3.3686045163967586E+00
  -3.3683062660256100E+00  -3.3680042030615112E+00  -3.3676983260453257E+00  -3.3673886335179168E+00  -3.3670751240201486E+00
  -3.3667577960928834E+00  -3.3664366482769852E+00  -3.3661116791133172E+00  -3.3657828871427431E+00  -3.3654502709061260E+00
  -3.3651138289443296E+00  -3.3647735597982171E+00  -3.3644294620086521E+00  -3.3640815341164978E+00  -3.3637297746626178E+00
  -3.3633741821878749E+00  -3.3630147552331331E+00  -3.3626514923392561E+00  -3.3622843920471062E+00  -3.3619134528975478E+00
  -3.3615386734314439E+00  -3.3611600521896574E+00  -3.3607775877130530E+00  -3.3603912785424930E+00  -3.3600011232188414E+00
  -3.3596071202829614E+00  -3.3592092682757162E+00  -3.3588075657379690E+00  -3.3584020112105839E+00  -3.3579926032344241E+00
  -3.3575793403503531E+00  -3.3571622210992329E+00  -3.3567412440219289E+00  -3.3563164076593042E+00  -3.3558877105522211E+00
  -3.3554551512415434E+00  -3.3550187282681350E+00  -3.3545784401728582E+00  -3.3541342854965781E+00  -3.3536862627801569E+00
  -3.3532343705644578E+00  -3.3527786073903449E+00  -3.3523189717986823E+00  -3.3518554623303314E+00  -3.3516206796864370E+00
  -3.3513985477178969E+00  -3.3511748385005733E+00  -3.3509495549508515E+00  -3.3507226999769149E+00  -3.3504942764787708E+00
  -3.3502642873482866E+00  -3.3500327354692150E+00  -3.3497996237172329E+00  -3.3495649549599640E+00  -3.3493287320570153E+00
  -3.3490909578600045E+00  -3.3488516352125917E+00  -3.3486107669505092E+00  -3.3483683559015924E+00  -3.3481244048858083E+00
  -3.3478789167152856E+00  -3.3476318941943464E+00  -3.3473833401195319E+00  -3.3471332572796366E+00  -3.3468816484557329E+00
  -3.3466285164212022E+00  -3.3463738639417633E+00  -3.3461176937755046E+00  -3.3458600086729064E+00  -3.3456008113768751E+00
  -3.3453401046227689E+00  -3.3450778911384247E+00  -3.3448141736441919E+00  -3.3445489548529515E+00  -3.3442822374701553E+00
  -3.3440140241938403E+00  -3.3437443177146688E+00  -3.3434731207159496E+00  -3.3432004358736633E+00  -3.3429262658564949E+00
  -3.3426506133258576E+00  -3.3423734809359202E+00  -3.3420948713336354E+00  -3.3418147871587629E+00  -3.3415332310439014E+00
  -3.3412502056145099E+00  -3.3409657134889370E+00  -3.3406797572784463E+00  -3.3403923395872415E+00  -3.3401034630124959E+00
  -3.3398131301443712E+00  -3.3395213435660525E+00  -3.3392281058537665E+00  -3.3389334195768088E+00  -3.3386372872975709E+00
  -3.3383397115715661E+00  -3.3380406949474515E+00  -3.3377402399670544E+00  -3.3374383491653985E+00  -3.3371350250707255E+00
  -3.3368302702045236E+00  -3.3365240870815498E+00  -3.3362164782098551E+00  -3.3359074460908076E+00  -3.3355969932191192E+00
  -3.3352851220828659E+00  -3.3349718351635165E+00  -3.3346571349359522E+00  -3.3343410238684923E+00  -3.3340235044229183E+00
  -3.3337045790544977E+00  -3.3333842502120046E+00  -3.3330625203377475E+00  -3.3327393918675869E+00  -3.3324148672309652E+00
  -3.3320889488509238E+00  -3.3317616391441289E+00  -3.3314329405208953E+00  -3.3311028553852049E+00  -3.3307713861347339E+00
  -3.3304385351608725E+00  -3.3301043048487484E+00  -3.3297686975772502E+00  -3.3294317157190454E+00  -3.3290933616406089E+00
  -3.3287536377022384E+00  -3.3284125462580820E+00  -3.3280700896561561E+00  -3.3277262702383688E+00  -3.3273810903405394E+00
  -3.3270345522924250E+00  -3.3266866584177346E+00  -3.3263374110341593E+00  -3.3259868124533827E+00  -3.3256348649811134E+00
  -3.3252815709170962E+00  -3.3249269325551403E+00  -3.3245709521831368E+00  -3.3242136320830782E+00  -3.3238549745310828E+00
  -3.3234949817974120E+00  -3.3231336561464917E+00  -3.3227709998369348E+00  -3.3224070151215579E+00  -3.3220417042474044E+00
  -3.3216750694557624E+00  -3.3213071129821867E+00  -3.3209378370565177E+00  -3.3205672439029019E+00  -3.3201953357398097E+00
  -3.3198221147800591E+00  -3.3194475832308292E+00  -3.3190717432936876E+00  -3.3186945971646020E+00  -3.3183161470339635E+00
  -3.3179363950866079E+00  -3.3175553435018301E+00  -3.3171729944534056E+00  -3.3167893501096102E+00  -3.3164044126332364E+00
  -3.3160181841816172E+00  -3.3156306669066367E+00  -3.3152418629547591E+00  -3.3148517744670367E+00  -3.3144604035791363E+00
  -3.3140677524213560E+00  -3.3136738231186378E+00  -3.3132786177905960E+00  -3.3128821385515250E+00  -3.3124843875104268E+00
  -3.3120853667710195E+00  -3.3116850784317640E+00  -3.3112835245858783E+00  -3.3108807073213522E+00  -3.3104766287209690E+00
  -3.3100712908623233E+00  -3.3096646958178377E+00  -3.3092568456547777E+00  -3.3088477424352716E+00  -3.3084373882163303E+00
  -3.3080257850498600E+00  -3.3076129349826808E+00  -3.3071988400565444E+00  -3.3067835023081518E+00  -3.3063669237691706E+00
  -3.3059491064662492E+00  -3.3055300524210347E+00  -3.3051097636501914E+00  -3.3046882421654171E+00  -3.3042654899734569E+00
  -3.3038415090761242E+00  -3.3034163014703131E+00  -3.3029898691480151E+00  -3.3025622140963415E+00  -3.3021333382975309E+00
  -3.3017032437289697E+00  -3.3012719323632109E+00  -3.3008394061679853E+00  -3.3004056671062187E+00  -3.2999707171360506E+00
  -3.2995345582108473E+00  -3.2990971922792180E+00  -3.2986586212850311E+00  -3.2982188471674312E+00  -3.2977778718608528E+00
  -3.2973356972950332E+00  -3.2968923253950368E+00  -3.2964477580812601E+00  -3.2960019972694536E+00  -3.2955550448707358E+00
  -3.2951069027916073E+00  -3.2946575729339651E+00  -3.2942070571951207E+00  -3.2937553574678149E+00  -3.2933024756402283E+00
  -3.2928484135959999E+00  -3.2923931732142440E+00  -3.2919367563695578E+00  -3.2914791649320452E+00  -3.2910204007673229E+00
  -3.2905604657365446E+00  -3.2900993616964023E+00  -3.2896370904991548E+00  -3.2891736539926315E+00  -3.2887090540202530E+00
  -3.2882432924210434E+00  -3.2877763710296430E+00  -3.2873082916763261E+00  -3.2868390561870111E+00  -3.2863686663832774E+00
  -3.2858971240823784E+00  -3.2854244310972551E+00  -3.2849505892365505E+00  -3.2844756003046229E+00  -3.2839994661015615E+00
  -3.2835221884231971E+00  -3.2830437690611189E+00  -3.2825642098026844E+00  -3.2820835124310381E+00  -3.2816016787251190E+00
  -3.2811187104596797E+00  -3.2806346094052952E+00  -3.2801493773283799E+00  -3.2796630159911984E+00  -3.2791755271518785E+00
  -3.2786869125644271E+00  -3.2781971739787412E+00  -3.2777063131406208E+00  -3.2772143317917828E+00  -3.2767212316698742E+00
  -3.2762270145084837E+00  -3.2757316820371551E+00  -3.2752352359814028E+00  -3.2747376780627189E+00  -3.2742390099985901E+00
  -3.2737392335025111E+00  -3.2732383502839930E+00  -3.2727363620485810E+00  -3.2722332704978618E+00  -3.2717290773294785E+00
  -3.2712237842371459E+00  -3.2707173929106577E+00  -3.2702099050358999E+00  -3.2697013222948672E+00  -3.2691916463656705E+00
  -3.2686808789225501E+00  -3.2681690216358903E+00  -3.2676560761722291E+00  -3.2671420441942689E+00  -3.2666269273608943E+00
  -3.2661107273271761E+00  -3.2655934457443885E+00  -3.2650750842600202E+00  -3.2645556445177863E+00  -3.2640351281576354E+00
  -3.2635135368157711E+00  -3.2629908721246523E+00  -3.2624671357130124E+00  -3.2619423292058696E+00  -3.2614164542245363E+00
  -3.2608895123866311E+00  -3.2603615053060921E+00  -3.2598324345931871E+00  -3.2593023018545231E+00  -3.2587711086930620E+00
  -3.2582388567081262E+00  -3.2577055474954140E+00  -3.2571711826470109E+00  -3.2566357637513983E+00  -3.2560992923934626E+00
  -3.2555617701545145E+00  -3.2550231986122906E+00  -3.2544835793409699E+00  -3.2539429139111835E+00  -3.2534012038900255E+00
  -3.2528584508410603E+00  -3.2523146563243412E+00  -3.2517698218964122E+00  -3.2512239491103250E+00  -3.2506770395156486E+00
  -3.2501290946584751E+00  -3.2495801160814399E+00  -3.2490301053237203E+00  -3.2484790639210543E+00  -3.2479269934057506E+00
  -3.2473738953066946E+00  -3.2468197711493625E+00  -3.2462646224558291E+00  -3.2457084507447820E+00  -3.2451512575315267E+00
  -3.2445930443280009E+00  -3.2440338126427823E+00  -3.2434735639810990E+00  -3.2429122998448419E+00  -3.2423500217325705E+00
  -3.2417867311395288E+00  -3.2412224295576473E+00  -3.2406571184755615E+00  -3.2400907993786157E+00  -3.2395234737488754E+00
  -3.2389551430651364E+00  -3.2383858088029345E+00  -3.2378154724345567E+00  -3.2372441354290493E+00  -3.2366717992522269E+00
  -3.2360984653666840E+00  -3.2355241352318038E+00  -3.2349488103037682E+00  -3.2343724920355665E+00  -3.2337951818770039E+00
  -3.2332168812747142E+00  -3.2326375916721668E+00  -3.2320573145096754E+00  -3.2314760512244094E+00  -3.2308938032504040E+00
  -3.2303105720185643E+00  -3.2297263589566807E+00  -3.2291411654894340E+00  -3.2285549930384083E+00  -3.2279678430220953E+00
  -3.2273797168559057E+00  -3.2267906159521824E+00  -3.2262005417202015E+00  -3.2256094955661876E+00  -3.2250174788933204E+00
  -3.2244244931017425E+00  -3.2238305395885725E+00  -3.2232356197479088E+00  -3.2226397349708411E+00  -3.2220428866454593E+00
  -3.2214450761568618E+00  -3.2208463048871634E+00  -3.2202465742155058E+00  -3.2196458855180659E+00  -3.2190442401680608E+00
  -3.2184416395357642E+00  -3.2178380849885051E+00  -3.2172335778906862E+00  -3.2166281196037838E+00  -3.2160217114863618E+00
  -3.2154143548940803E+00  -3.2148060511796994E+00  -3.2141968016930909E+00  -3.2135866077812500E+00  -3.2129754707882934E+00
  -3.2123633920554790E+00  -3.2117503729212076E+00  -3.2111364147210333E+00  -3.2105215187876697E+00  -3.2099056864510009E+00
  -3.2092889190380887E+00  -3.2086712178731784E+00  -3.2080525842777110E+00  -3.2074330195703271E+00  -3.2068125250668791E+00
  -3.2061911020804343E+00  -3.2055687519212874E+00  -3.2049454758969662E+00  -3.2043212753122408E+00  -3.2036961514691282E+00
  -3.2030701056669049E+00  -3.2024431392021118E+00  -3.2018152533685624E+00  -3.2011864494573503E+00  -3.2005567287568581E+00
  -3.1999260925527642E+00  -3.1992945421280510E+00  -3.1986620787630113E+00  -3.1980287037352584E+00  -3.1973944183197309E+00
  -3.1967592237887028E+00  -3.1961231214117887E+00  -3.1954861124559546E+00  -3.1948481981855190E+00  -3.1942093798621682E+00
  -3.1935696587449618E+00  -3.1929290360903324E+00  -3.1922875131521056E+00  -3.1916450911814960E+00  -3.1910017714271230E+00
  -3.1903575551350114E+00  -3.1897124435486055E+00  -3.1890664379087688E+00  -3.1884195394537973E+00  -3.1877717494194231E+00
  -3.1871230690388255E+00  -3.1864734995426329E+00  -3.1858230421589351E+00  -3.1851716981132849E+00  -3.1845194686287122E+00
  -3.1838663549257245E+00  -3.1832123582223142E+00  -3.1825574797339757E+00  -3.1819017206736961E+00  -3.1812450822519756E+00
  -3.1805875656768285E+00  -3.1799291721537903E+00  -3.1792699028859275E+00  -3.1786097590738396E+00  -3.1779487419156713E+00
  -3.1772868526071134E+00  -3.1766240923414180E+00  -3.1759604623093951E+00  -3.1752959636994271E+00  -3.1746305976974738E+00
  -3.1739643654870746E+00  -3.1732972682493625E+00  -3.1726293071630636E+00  -3.1719604834045101E+00  -3.1712907981476417E+00
  -3.1706202525640168E+00  -3.1699488478228131E+00  -3.1692765850908389E+00  -3.1686034655325419E+00  -3.1679294903100064E+00
  -3.1672546605829703E+00  -3.1665789775088236E+00  -3.1659024422426203E+00  -3.1652250559370794E+00  -3.1645468197425983E+00
  -3.1638677348072521E+00  -3.1631878022768039E+00  -3.1625070232947117E+00  -3.1618253990021290E+00  -3.1611429305379213E+00
  -3.1604596190386611E+00  -3.1597754656386430E+00  -3.1590904714698826E+00  -3.1584046376621311E+00  -3.1577179653428722E+00
  -3.1570304556373339E+00  -3.1563421096684956E+00  -3.1556529285570907E+00  -3.1549629134216111E+00  -3.1542720653783221E+00
  -3.1535803855412570E+00  -3.1528878750222313E+00  -3.1521945349308469E+00  -3.1515003663744943E+00  -3.1508053704583618E+00
  -3.1501095482854438E+00  -3.1494129009565435E+00  -3.1487154295702759E+00  -3.1480171352230792E+00  -3.1473180190092189E+00
  -3.1466180820207934E+00  -3.1459173253477379E+00  -3.1452157500778335E+00  -3.1445133572967103E+00  -3.1438101480878546E+00
  -3.1431061235326148E+00  -3.1424012847102052E+00  -3.1416956326977141E+00  -3.1409891685701101E+00  -3.1402818934002426E+00
  -3.1395738082588527E+00  -3.1388649142145759E+00  -3.1381552123339524E+00  -3.1374447036814237E+00  -3.1367333893193488E+00
  -3.1360212703080004E+00  -3.1353083477055761E+00  -3.1345946225682044E+00  -3.1338800959499435E+00  -3.1331647689027968E+00
  -3.1324486424767088E+00  -3.1317317177195765E+00  -3.1310139956772507E+00  -3.1302954773935490E+00  -3.1295761639102495E+00
  -3.1288560562671073E+00  -3.1281351555018522E+00  -3.1274134626501984E+00  -3.1266909787458466E+00  -3.1259677048204932E+00
  -3.1252436419038325E+00  -3.1245187910235610E+00  -3.1237931532053871E+00  -3.1230667294730332E+00  -3.1223395208482390E+00
  -3.1216115283507708E+00  -3.1208827529984262E+00  -3.1201531958070352E+00  -3.1194228577904695E+00  -3.1186917399606480E+00
  -3.1179598433275348E+00  -3.1172271688991562E+00  -3.1164937176815939E+00  -3.1157594906789963E+00  -3.1150244888935852E+00
  -3.1142887133256565E+00  -3.1135521649735858E+00  -3.1128148448338351E+00  -3.1120767539009586E+00  -3.1113378931676032E+00
  -3.1105982636245186E+00  -3.1098578662605596E+00  -3.1091167020626909E+00  -3.1083747720159911E+00  -3.1076320771036627E+00
  -3.1068886183070297E+00  -3.1061443966055471E+00  -3.1053994129768046E+00  -3.1046536683965322E+00  -3.1039071638386013E+00
  -3.1031599002750347E+00  -3.1024118786760106E+00  -3.1016631000098607E+00  -3.1009135652430828E+00  -3.1001632753403450E+00
  -3.0994122312644836E+00  -3.0986604339765149E+00  -3.0979078844356369E+00  -3.0971545835992327E+00  -3.0964005324228796E+00
  -3.0956457318603472E+00  -3.0948901828636073E+00  -3.0941338863828389E+00  -3.0933768433664270E+00  -3.0926190547609731E+00
  -3.0918605215112964E+00  -3.0911012445604400E+00  -3.0903412248496753E+00  -3.0895804633185038E+00  -3.0888189609046668E+00
  -3.0880567185441445E+00  -3.0872937371711653E+00  -3.0865300177182067E+00  -3.0857655611159966E+00  -3.0850003682935303E+00
  -3.0842344401780593E+00  -3.0834677776951063E+00  -3.0827003817684666E+00  -3.0819322533202094E+00  -3.0811633932706886E+00
  -3.0803938025385382E+00  -3.0796234820406889E+00  -3.0788524326923565E+00  -3.0780806554070632E+00  -3.0773081510966285E+00
  -3.0765349206711803E+00  -3.0757609650391573E+00  -3.0749862851073142E+00  -3.0742108817807243E+00  -3.0734347559627841E+00
  -3.0726579085552177E+00  -3.0718803404580837E+00  -3.0711020525697723E+00  -3.0703230457870205E+00  -3.0695433210049030E+00
  -3.0687628791168491E+00  -3.0679817210146352E+00  -3.0671998475883995E+00  -3.0664172597266375E+00  -3.0656339583162118E+00
  -3.0648499442423542E+00  -3.0640652183886679E+00  -3.0632797816371347E+00  -3.0624936348681175E+00  -3.0617067789603625E+00
  -3.0609192147910083E+00  -3.0601309432355843E+00  -3.0593419651680192E+00  -3.0585522814606403E+00  -3.0577618929841823E+00
  -3.0569708006077869E+00  -3.0561790051990108E+00  -3.0553865076238256E+00  -3.0545933087466244E+00  -3.0537994094302277E+00
  -3.0530048105358798E+00  -3.0522095129232603E+00  -3.0514135174504857E+00  -3.0506168249741097E+00  -3.0498194363491349E+00
  -3.0490213524290044E+00  -3.0482225740656199E+00  -3.0474231021093350E+00  -3.0466229374089639E+00  -3.0458220808117820E+00
  -3.0450205331635325E+00  -3.0442182953084296E+00  -3.0434153680891600E+00  -3.0426117523468910E+00  -3.0418074489212685E+00
  -3.0410024586504258E+00  -3.0401967823709852E+00  -3.0393904209180600E+00  -3.0385833751252602E+00  -3.0377756458246994E+00
  -3.0369672338469909E+00  -3.0361581400212563E+00  -3.0353483651751274E+00  -3.0345379101347532E+00  -3.0337267757247983E+00
  -3.0329149627684502E+00  -3.0321024720874221E+00  -3.0312893045019549E+00  -3.0304754608308220E+00  -3.0296609418913349E+00
  -3.0288457484993412E+00  -3.0280298814692341E+00  -3.0272133416139546E+00  -3.0263961297449886E+00  -3.0255782466723815E+00
  -3.0247596932047327E+00  -3.0239404701492019E+00  -3.0231205783115134E+00  -3.0223000184959594E+00  -3.0214787915054035E+00
  -3.0206568981412811E+00  -3.0198343392036073E+00  -3.0190111154909784E+00  -3.0181872278005764E+00  -3.0173626769281658E+00
  -3.0165374636681106E+00  -3.0157115888133621E+00  -3.0148850531554734E+00  -3.0140578574845995E+00  -3.0132300025894976E+00
  -3.0124014892575341E+00  -3.0115723182746872E+00  -3.0107424904255504E+00  -3.0099120064933333E+00  -3.0090808672598675E+00
  -3.0082490735056098E+00  -3.0074166260096438E+00  -3.0065835255496856E+00  -3.0057497729020834E+00  -3.0049153688418255E+00
  -3.0040803141425392E+00  -3.0032446095764969E+00  -3.0024082559146157E+00  -3.0015712539264676E+00  -3.0007336043802728E+00
  -2.9998953080429143E+00  -2.9990563656799294E+00  -2.9982167780555211E+00  -2.9973765459325596E+00  -2.9965356700725829E+00
  -2.9956941512358011E+00  -2.9948519901811026E+00  -2.9940091876660517E+00  -2.9931657444468964E+00  -2.9923216612785679E+00
  -2.9914769389146878E+00  -2.9906315781075676E+00  -2.9897855796082125E+00  -2.9889389441663261E+00  -2.9880916725303104E+00
  -2.9872437654472730E+00  -2.9863952236630267E+00  -2.9855460479220959E+00  -2.9846962389677123E+00  -2.9838457975418287E+00
  -2.9829947243851129E+00  -2.9821430202369554E+00  -2.9812906858354711E+00  -2.9804377219175016E+00  -2.9795841292186189E+00
  -2.9787299084731305E+00  -2.9778750604140756E+00  -2.9770195857732382E+00  -2.9761634852811394E+00  -2.9753067596670482E+00
  -2.9744494096589804E+00  -2.9735914359837028E+00  -2.9727328393667367E+00  -2.9718736205323593E+00  -2.9710137802036067E+00
  -2.9701533191022782E+00  -2.9692922379489386E+00  -2.9684305374629201E+00  -2.9675682183623264E+00  -2.9667052813640327E+00
  -2.9658417271836952E+00  -2.9649775565357452E+00  -2.9641127701333976E+00  -2.9632473686886542E+00  -2.9623813529123013E+00
  -2.9615147235139183E+00  -2.9606474812018768E+00  -2.9597796266833445E+00  -2.9589111606642882E+00  -2.9580420838494779E+00
  -2.9571723969424846E+00  -2.9563021006456887E+00  -2.9554311956602803E+00  -2.9545596826862628E+00  -2.9536875624224517E+00
  -2.9528148355664841E+00  -2.9519415028148162E+00  -2.9510675648627269E+00  -2.9501930224043229E+00  -2.9493178761325383E+00
  -2.9484421267391396E+00  -2.9475657749147253E+00  -2.9466888213487334E+00  -2.9458112667294385E+00  -2.9449331117439606E+00
  -2.9440543570782589E+00  -2.9431750034171471E+00  -2.9422950514442827E+00  -2.9414145018421785E+00  -2.9405333552922013E+00
  -2.9396516124745751E+00  -2.9387692740683868E+00  -2.9378863407515832E+00  -2.9370028132009769E+00  -2.9361186920922493E+00
  -2.9352339780999537E+00  -2.9343486718975131E+00  -2.9334627741572277E+00  -2.9325762855502773E+00  -2.9316892067467188E+00
  -2.9308015384154964E+00  -2.9299132812244366E+00  -2.9290244358402560E+00  -2.9281350029285598E+00  -2.9272449831538503E+00
  -2.9263543771795208E+00  -2.9254631856678661E+00  -2.9245714092800799E+00  -2.9236790486762594E+00  -2.9227861045154069E+00
  -2.9218925774554338E+00  -2.9209984681531602E+00  -2.9201037772643201E+00  -2.9192085054435633E+00  -2.9183126533444557E+00
  -2.9174162216194848E+00  -2.9165192109200597E+00  -2.9156216218965136E+00  -2.9147234551981094E+00  -2.9138247114730373E+00
  -2.9129253913684203E+00  -2.9120254955303180E+00  -2.9111250246037215E+00  -2.9102239792325668E+00  -2.9093223600597278E+00
  -2.9084201677270252E+00  -2.9075174028752206E+00  -2.9066140661440301E+00  -2.9057101581721181E+00  -2.9048056795971018E+00
  -2.9039006310555533E+00  -2.9029950131830051E+00  -2.9020888266139453E+00  -2.9011820719818311E+00  -2.9002747499190780E+00
  -2.8993668610570702E+00  -2.8984584060261636E+00  -2.8975493854556835E+00  -2.8966397999739288E+00  -2.8957296502081751E+00
  -2.8948189367846759E+00  -2.8939076603286660E+00  -2.8929958214643610E+00  -2.8920834208149646E+00  -2.8911704590026637E+00
  -2.8902569366486390E+00  -2.8893428543730590E+00  -2.8884282127950889E+00  -2.8875130125328869E+00  -2.8865972542036138E+00
  -2.8856809384234259E+00  -2.8847640658074858E+00  -2.8838466369699596E+00  -2.8829286525240194E+00  -2.8820101130818481E+00
  -2.8810910192546393E+00  -2.8801713716525992E+00  -2.8792511708849493E+00  -2.8783304175599316E+00  -2.8774091122848056E+00
  -2.8764872556658534E+00  -2.8755648483083798E+00  -2.8746418908167182E+00  -2.8737183837942286E+00  -2.8727943278433021E+00
  -2.8718697235653625E+00  -2.8709445715608681E+00  -2.8700188724293136E+00  -2.8690926267692332E+00  -2.8681658351782007E+00
  -2.8672384982528345E+00  -2.8663106165887964E+00  -2.8653821907807964E+00  -2.8644532214225933E+00  -2.8635237091069969E+00
  -2.8625936544258712E+00  -2.8616630579701332E+00  -2.8607319203297599E+00  -2.8598002420937849E+00  -2.8588680238503059E+00
  -2.8579352661864825E+00  -2.8570019696885409E+00  -2.8560681349417711E+00  -2.8551337625305360E+00  -2.8541988530382696E+00
  -2.8532634070474776E+00  -2.8523274251397415E+00  -2.8513909078957225E+00  -2.8504538558951564E+00  -2.8495162697168661E+00
  -2.8485781499387524E+00  -2.8476394971378038E+00  -2.8467003118900962E+00  -2.8457605947707929E+00  -2.8448203463541506E+00
  -2.8438795672135173E+00  -2.8429382579213356E+00  -2.8419964190491447E+00  -2.8410540511675850E+00  -2.8401111548463960E+00
  -2.8391677306544181E+00  -2.8382237791595988E+00  -2.8372793009289907E+00  -2.8363342965287544E+00  -2.8353887665241615E+00
  -2.8344427114795936E+00  -2.8334961319585479E+00  -2.8325490285236405E+00  -2.8316014017365978E+00  -2.8306532521582723E+00
  -2.8297045803486331E+00  -2.8287553868667765E+00  -2.8278056722709222E+00  -2.8268554371184149E+00  -2.8259046819657310E+00
  -2.8249534073684761E+00  -2.8240016138813884E+00  -2.8230493020583416E+00  -2.8220964724523419E+00  -2.8211431256155368E+00
  -2.8201892620992139E+00  -2.8192348824537978E+00  -2.8182799872288617E+00  -2.8173245769731210E+00  -2.8163686522344391E+00
  -2.8154122135598261E+00  -2.8144552614954446E+00  -2.8134977965866090E+00  -2.8125398193777871E+00  -2.8115813304126034E+00
  -2.8106223302338389E+00  -2.8096628193834352E+00  -2.8087027984024924E+00  -2.8077422678312773E+00  -2.8067812282092168E+00
  -2.8058196800749080E+00  -2.8048576239661132E+00  -2.8038950604197663E+00  -2.8029319899719716E+00  -2.8019684131580065E+00
  -2.8010043305123244E+00  -2.8000397425685546E+00  -2.7990746498595036E+00  -2.7981090529171602E+00  -2.7971429522726936E+00
  -2.7961763484564570E+00  -2.7952092419979868E+00  -2.7942416334260094E+00  -2.7932735232684376E+00  -2.7923049120523751E+00
  -2.7913358003041142E+00  -2.7903661885491480E+00  -2.7893960773121571E+00  -2.7884254671170234E+00  -2.7874543584868263E+00
  -2.7864827519438444E+00  -2.7855106480095602E+00  -2.7845380472046557E+00  -2.7835649500490227E+00  -2.7825913570617553E+00
  -2.7816172687611598E+00  -2.7806426856647510E+00  -2.7796676082892531E+00  -2.7786920371506061E+00  -2.7777159727639651E+00
  -2.7767394156436986E+00  -2.7757623663033968E+00  -2.7747848252558662E+00  -2.7738067930131374E+00  -2.7728282700864617E+00
  -2.7718492569863158E+00  -2.7708697542224017E+00  -2.7698897623036496E+00  -2.7689092817382188E+00  -2.7679283130334995E+00
  -2.7669468566961131E+00  -2.7659649132319153E+00  -2.7649824831459973E+00  -2.7639995669426876E+00  -2.7630161651255523E+00
  -2.7620322781973994E+00  -2.7610479066602758E+00  -2.7600630510154747E+00  -2.7590777117635299E+00  -2.7580918894042261E+00
  -2.7571055844365917E+00  -2.7561187973589059E+00  -2.7551315286686995E+00  -2.7541437788627547E+00  -2.7531555484371082E+00
  -2.7521668378870494E+00  -2.7511776477071281E+00  -2.7501879783911511E+00  -2.7491978304321836E+00  -2.7482072043225538E+00
  -2.7472161005538513E+00  -2.7462245196169328E+00  -2.7452324620019164E+00  -2.7442399281981915E+00  -2.7432469186944131E+00
  -2.7422534339785090E+00  -2.7412594745376762E+00  -2.7402650408583873E+00  -2.7392701334263867E+00  -2.7382747527266975E+00
  -2.7372788992436186E+00  -2.7362825734607279E+00  -2.7352857758608842E+00  -2.7342885069262284E+00  -2.7332907671381848E+00
  -2.7322925569774599E+00  -2.7312938769240485E+00  -2.7302947274572338E+00  -2.7292951090555873E+00  -2.7282950221969675E+00
  -2.7272944673585302E+00  -2.7262934450167209E+00  -2.7252919556472803E+00  -2.7242899997252459E+00  -2.7232875777249506E+00
  -2.7222846901200293E+00  -2.7212813373834144E+00  -2.7202775199873419E+00  -2.7192732384033493E+00  -2.7182684931022782E+00
  -2.7172632845542779E+00  -2.7162576132288030E+00  -2.7152514795946172E+00  -2.7142448841197941E+00  -2.7132378272717190E+00
  -2.7122303095170892E+00  -2.7112223313219159E+00  -2.7102138931515261E+00  -2.7092049954705630E+00  -2.7081956387429886E+00
  -2.7071858234320829E+00  -2.7061755500004474E+00  -2.7051648189100073E+00  -2.7041536306220082E+00  -2.7031419855970213E+00
  -2.7021298842949459E+00  -2.7011173271750053E+00  -2.7001043146957548E+00  -2.6990908473150776E+00  -2.6980769254901893E+00
  -2.6970625496776379E+00  -2.6960477203333038E+00  -2.6950324379124053E+00  -2.6940167028694959E+00  -2.6930005156584667E+00
  -2.6919838767325488E+00  -2.6909667865443128E+00  -2.6899492455456717E+00  -2.6889312541878829E+00  -2.6879128129215428E+00
  -2.6868939221966017E+00  -2.6858745824623504E+00  -2.6848547941674288E+00  -2.6838345577598290E+00  -2.6828138736868907E+00
  -2.6817927423953076E+00  -2.6807711643311252E+00  -2.6797491399397444E+00  -2.6787266696659229E+00  -2.6777037539537720E+00
  -2.6766803932467647E+00  -2.6756565879877319E+00  -2.6746323386188657E+00  -2.6736076455817188E+00  -2.6725825093172100E+00
  -2.6715569302656195E+00  -2.6705309088665947E+00  -2.6695044455591508E+00  -2.6684775407816690E+00  -2.6674501949719001E+00
  -2.6664224085669685E+00  -2.6653941820033658E+00  -2.6643655157169603E+00  -2.6633364101429922E+00  -2.6623068657160802E+00
  -2.6612768828702156E+00  -2.6602464620387702E+00  -2.6592156036544932E+00  -2.6581843081495156E+00  -2.6571525759553496E+00
  -2.6561204075028888E+00  -2.6550878032224121E+00  -2.6540547635435821E+00  -2.6530212888954479E+00  -2.6519873797064459E+00
  -2.6509530364044029E+00  -2.6499182594165314E+00  -2.6488830491694380E+00  -2.6478474060891215E+00  -2.6468113306009720E+00
  -2.6457748231297749E+00  -2.6447378840997100E+00  -2.6437005139343559E+00  -2.6426627130566875E+00  -2.6416244818890799E+00
  -2.6405858208533055E+00  -2.6395467303705415E+00  -2.6385072108613659E+00  -2.6374672627457598E+00  -2.6364268864431111E+00
  -2.6353860823722091E+00  -2.6343448509512544E+00  -2.6333031925978538E+00  -2.6322611077290228E+00  -2.6312185967611903E+00
  -2.6301756601101944E+00  -2.6291322981912830E+00  -2.6280885114191221E+00  -2.6270443002077908E+00  -2.6259996649707840E+00
  -2.6249546061210141E+00  -2.6239091240708117E+00  -2.6228632192319248E+00  -2.6218168920155240E+00  -2.6207701428322006E+00
  -2.6197229720919677E+00  -2.6186753802042633E+00  -2.6176273675779491E+00  -2.6165789346213115E+00  -2.6155300817420670E+00
  -2.6144808093473562E+00  -2.6134311178437519E+00  -2.6123810076372562E+00  -2.6113304791333012E+00  -2.6102795327367501E+00
  -2.6092281688519039E+00  -2.6081763878824940E+00  -2.6071241902316888E+00  -2.6060715763020927E+00  -2.6050185464957485E+00
  -2.6039651012141363E+00  -2.6029112408581767E+00  -2.6018569658282305E+00  -2.6008022765241012E+00  -2.5997471733450332E+00
  -2.5986916566897174E+00  -2.5976357269562889E+00  -2.5965793845423257E+00  -2.5955226298448575E+00  -2.5944654632603581E+00
  -2.5934078851847526E+00  -2.5923498960134155E+00  -2.5912914961411695E+00  -2.5902326859622966E+00  -2.5891734658705254E+00
  -2.5881138362590397E+00  -2.5870537975204813E+00  -2.5859933500469467E+00  -2.5849324942299869E+00  -2.5838712304606157E+00
  -2.5828095591293021E+00  -2.5817474806259786E+00  -2.5806849953400373E+00  -2.5796221036603320E+00  -2.5785588059751796E+00
  -2.5774951026723629E+00  -2.5764309941391290E+00  -2.5753664807621912E+00  -2.5743015629277295E+00  -2.5732362410213927E+00
  -2.5721705154282981E+00  -2.5711043865330332E+00  -2.5700378547196574E+00  -2.5689709203717022E+00  -2.5679035838721704E+00
  -2.5668358456035416E+00  -2.5657677059477675E+00  -2.5646991652862772E+00  -2.5636302239999780E+00  -2.5625608824692532E+00
  -2.5614911410739647E+00  -2.5604210001934553E+00  -2.5593504602065482E+00  -2.5582795214915488E+00  -2.5572081844262442E+00
  -2.5561364493879077E+00  -2.5550643167532932E+00  -2.5539917868986426E+00  -2.5529188601996835E+00  -2.5518455370316313E+00
  -2.5507718177691907E+00  -2.5496977027865531E+00  -2.5486231924574021E+00  -2.5475482871549127E+00  -2.5464729872517506E+00
  -2.5453972931200748E+00  -2.5443212051315389E+00  -2.5432447236572919E+00  -2.5421678490679755E+00  -2.5410905817337328E+00
  -2.5400129220242000E+00  -2.5389348703085153E+00  -2.5378564269553143E+00  -2.5367775923327334E+00  -2.5356983668084108E+00
  -2.5346187507494862E+00  -2.5335387445226023E+00  -2.5324583484939067E+00  -2.5313775630290500E+00  -2.5302963884931917E+00
  -2.5292148252509961E+00  -2.5281328736666335E+00  -2.5270505341037861E+00  -2.5259678069256415E+00  -2.5248846924949016E+00
  -2.5238011911737770E+00  -2.5227173033239891E+00  -2.5216330293067757E+00  -2.5205483694828872E+00  -2.5194633242125861E+00
  -2.5183778938556536E+00  -2.5172920787713853E+00  -2.5162058793185951E+00  -2.5151192958556154E+00  -2.5140323287402961E+00
  -2.5129449783300077E+00  -2.5118572449816434E+00  -2.5107691290516141E+00  -2.5096806308958550E+00  -2.5085917508698268E+00
  -2.5075024893285121E+00  -2.5064128466264171E+00  -2.5053228231175773E+00  -2.5042324191555538E+00  -2.5031416350934341E+00
  -2.5020504712838338E+00  -2.5009589280789011E+00  -2.4998670058303105E+00  -2.4987747048892683E+00  -2.4976820256065153E+00
  -2.4965889683323228E+00  -2.4954955334164954E+00  -2.4944017212083711E+00  -2.4933075320568254E+00  -2.4922129663102686E+00
  -2.4911180243166484E+00  -2.4900227064234484E+00  -2.4889270129776935E+00  -2.4878309443259456E+00  -2.4867345008143058E+00
  -2.4856376827884206E+00  -2.4845404905934729E+00  -2.4834429245741920E+00  -2.4823449850748482E+00  -2.4812466724392568E+00
  -2.4801479870107794E+00  -2.4790489291323201E+00  -2.4779494991463342E+00  -2.4768496973948202E+00  -2.4757495242193266E+00
  -2.4746489799609499E+00  -2.4735480649603390E+00  -2.4724467795576910E+00  -2.4713451240927555E+00  -2.4702430989048323E+00
  -2.4691407043327778E+00  -2.4680379407149982E+00  -2.4669348083894560E+00  -2.4658313076936715E+00  -2.4647274389647174E+00
  -2.4636232025392242E+00  -2.4625185987533804E+00  -2.4614136279429353E+00  -2.4603082904431934E+00  -2.4592025865890212E+00
  -2.4580965167148467E+00  -2.4569900811546592E+00  -2.4558832802420083E+00  -2.4547761143100102E+00  -2.4536685836913410E+00
  -2.4525606887182456E+00  -2.4514524297225302E+00  -2.4503438070355705E+00  -2.4492348209883072E+00  -2.4481254719112502E+00
  -2.4470157601344757E+00  -2.4459056859876318E+00  -2.4447952497999350E+00  -2.4436844519001717E+00  -2.4425732926167005E+00
  -2.4414617722774534E+00  -2.4403498912099337E+00  -2.4392376497412198E+00  -2.4381250481979628E+00  -2.4370120869063920E+00
  -2.4358987661923082E+00  -2.4347850863810923E+00  -2.4336710477977030E+00  -2.4325566507666738E+00  -2.4314418956121200E+00
  -2.4303267826577351E+00  -2.4292113122267947E+00  -2.4280954846421525E+00  -2.4269793002262459E+00  -2.4258627593010966E+00
  -2.4247458621883049E+00  -2.4236286092090591E+00  -2.4225110006841306E+00  -2.4213930369338765E+00  -2.4202747182782405E+00
  -2.4191560450367513E+00  -2.4180370175285275E+00  -2.4169176360722759E+00  -2.4157979009862900E+00  -2.4146778125884532E+00
  -2.4135573711962430E+00  -2.4124365771267242E+00  -2.4113154306965559E+00  -2.4101939322219863E+00  -2.4090720820188603E+00
  -2.4079498804026165E+00  -2.4068273276882852E+00  -2.4057044241904966E+00  -2.4045811702234721E+00  -2.4034575661010322E+00
  -2.4023336121365961E+00  -2.4012093086431774E+00  -2.4000846559333939E+00  -2.3989596543194573E+00  -2.3978343041131818E+00
  -2.3967086056259839E+00  -2.3955825591688793E+00  -2.3944561650524880E+00  -2.3933294235870317E+00  -2.3922023350823354E+00
  -2.3910748998478293E+00  -2.3899471181925467E+00  -2.3888189904251305E+00  -2.3876905168538247E+00  -2.3865616977864850E+00
  -2.3854325335305715E+00  -2.3843030243931533E+00  -2.3831731706809105E+00  -2.3820429727001304E+00  -2.3809124307567116E+00
  -2.3797815451561632E+00  -2.3786503162036077E+00  -2.3775187442037766E+00  -2.3763868294610178E+00  -2.3752545722792910E+00
  -2.3741219729621696E+00  -2.3729890318128444E+00  -2.3718557491341192E+00  -2.3707221252284159E+00  -2.3695881603977709E+00
  -2.3684538549438425E+00  -2.3673192091679023E+00  -2.3661842233708432E+00  -2.3650488978531770E+00  -2.3639132329150363E+00
  -2.3627772288561752E+00  -2.3616408859759668E+00  -2.3605042045734073E+00  -2.3593671849471169E+00  -2.3582298273953382E+00
  -2.3570921322159357E+00  -2.3559540997064032E+00  -2.3548157301638564E+00  -2.3536770238850351E+00  -2.3525379811663112E+00
  -2.3513986023036786E+00  -2.3502588875927621E+00  -2.3491188373288132E+00  -2.3479784518067119E+00  -2.3468377313209712E+00
  -2.3456966761657299E+00  -2.3445552866347605E+00  -2.3434135630214672E+00  -2.3422715056188852E+00  -2.3411291147196813E+00
  -2.3399863906161582E+00  -2.3388433336002521E+00  -2.3376999439635320E+00  -2.3365562219972031E+00  -2.3354121679921080E+00
  -2.3342677822387232E+00  -2.3331230650271628E+00  -2.3319780166471809E+00  -2.3308326373881663E+00  -2.3296869275391492E+00
  -2.3285408873887983E+00  -2.3273945172254220E+00  -2.3262478173369709E+00  -2.3251007880110346E+00  -2.3239534295348472E+00
  -2.3228057421952824E+00  -2.3216577262788594E+00  -2.3205093820717377E+00  -2.3193607098597280E+00  -2.3182117099282769E+00
  -2.3170623825624816E+00  -2.3159127280470853E+00  -2.3147627466664775E+00  -2.3136124387046930E+00  -2.3124618044454168E+00
  -2.3113108441719796E+00  -2.3101595581673640E+00  -2.3090079467142011E+00  -2.3078560100947692E+00  -2.3067037485910018E+00
  -2.3055511624844813E+00  -2.3043982520564428E+00  -2.3032450175877734E+00  -2.3020914593590129E+00  -2.3009375776503544E+00
  -2.2997833727416448E+00  -2.2986288449123893E+00  -2.2974739944417442E+00  -2.2963188216085220E+00  -2.2951633266911950E+00
  -2.2940075099678872E+00  -2.2928513717163868E+00  -2.2916949122141350E+00  -2.2905381317382303E+00  -2.2893810305654374E+00
  -2.2882236089721757E+00  -2.2870658672345252E+00  -2.2859078056282285E+00  -2.2847494244286870E+00  -2.2835907239109687E+00
  -2.2824317043497993E+00  -2.2812723660195702E+00  -2.2801127091943365E+00  -2.2789527341478166E+00  -2.2777924411533954E+00
  -2.2766318304841202E+00  -2.2754709024127084E+00  -2.2743096572115391E+00  -2.2731480951526621E+00  -2.2719862165077926E+00
  -2.2708240215483144E+00  -2.2696615105452813E+00  -2.2684986837694145E+00  -2.2673355414911063E+00  -2.2661720839804174E+00
  -2.2650083115070809E+00  -2.2638442243405015E+00  -2.2626798227497535E+00  -2.2615151070035853E+00  -2.2603500773704197E+00
  -2.2591847341183500E+00  -2.2580190775151427E+00  -2.2568531078282446E+00  -2.2556868253247719E+00  -2.2545202302715195E+00
  -2.2533533229349549E+00  -2.2521861035812258E+00  -2.2510185724761564E+00  -2.2498507298852481E+00  -2.2486825760736786E+00
  -2.2475141113063080E+00  -2.2463453358476722E+00  -2.2451762499619905E+00  -2.2440068539131595E+00  -2.2428371479647566E+00
  -2.2416671323800417E+00  -2.2404968074219562E+00  -2.2393261733531262E+00  -2.2381552304358561E+00  -2.2369839789321366E+00
  -2.2358124191036417E+00  -2.2346405512117298E+00  -2.2334683755174440E+00  -2.2322958922815128E+00  -2.2311231017643514E+00
  -2.2299500042260605E+00  -2.2287765999264297E+00  -2.2276028891249315E+00  -2.2264288720807306E+00  -2.2252545490526798E+00
  -2.2240799202993182E+00  -2.2229049860788779E+00  -2.2217297466492774E+00  -2.2205542022681279E+00  -2.2193783531927322E+00
  -2.2182021996800807E+00  -2.2170257419868609E+00  -2.2158489803694486E+00  -2.2146719150839145E+00  -2.2134945463860216E+00
  -2.2123168745312292E+00  -2.2111388997746877E+00  -2.2099606223712449E+00  -2.2087820425754434E+00  -2.2076031606415190E+00
  -2.2064239768234075E+00  -2.2052444913747418E+00  -2.2040647045488475E+00  -2.2028846165987526E+00  -2.2017042277771823E+00
  -2.2005235383365602E+00  -2.1993425485290068E+00  -2.1981612586063455E+00  -2.1969796688201004E+00  -2.1957977794214916E+00
  -2.1946155906614471E+00  -2.1934331027905896E+00  -2.1922503160592508E+00  -2.1910672307174570E+00  -2.1898838470149462E+00
  -2.1887001652011526E+00  -2.1875161855252192E+00  -2.1863319082359900E+00  -2.1851473335820173E+00  -2.1839624618115572E+00
  -2.1827772931725704E+00  -2.1815918279127247E+00  -2.1804060662793980E+00  -2.1792200085196707E+00  -2.1780336548803314E+00
  -2.1768470056078795E+00  -2.1756600609485224E+00  -2.1744728211481767E+00  -2.1732852864524657E+00  -2.1720974571067271E+00
  -2.1709093333560050E+00  -2.1697209154450579E+00  -2.1685322036183532E+00  -2.1673431981200708E+00  -2.1661538991941045E+00
  -2.1649643070840598E+00  -2.1637744220332515E+00  -2.1625842442847172E+00  -2.1613937740811995E+00  -2.1602030116651600E+00
  -2.1590119572787745E+00  -2.1578206111639346E+00  -2.1566289735622477E+00  -2.1554370447150366E+00  -2.1542448248633423E+00
  -2.1530523142479217E+00  -2.1518595131092515E+00  -2.1506664216875220E+00  -2.1494730402226496E+00  -2.1482793689542619E+00
  -2.1470854081217094E+00  -2.1458911579640634E+00  -2.1446966187201157E+00  -2.1435017906283753E+00  -2.1423066739270764E+00
  -2.1411112688541731E+00  -2.1399155756473416E+00  -2.1387195945439799E+00  -2.1375233257812094E+00  -2.1363267695958790E+00
  -2.1351299262245527E+00  -2.1339327959035259E+00  -2.1327353788688170E+00  -2.1315376753561668E+00  -2.1303396856010468E+00
  -2.1291414098386499E+00  -2.1279428483038951E+00  -2.1267440012314336E+00  -2.1255448688556364E+00  -2.1243454514106084E+00
  -2.1231457491301797E+00  -2.1219457622479090E+00  -2.1207454909970838E+00  -2.1195449356107221E+00  -2.1183440963215707E+00
  -2.1171429733621072E+00  -2.1159415669645369E+00  -2.1147398773608015E+00  -2.1135379047825706E+00  -2.1123356494612446E+00
  -2.1111331116279586E+00  -2.1099302915135820E+00  -2.1087271893487118E+00  -2.1075238053636829E+00  -2.1063201397885618E+00
  -2.1051161928531505E+00  -2.1039119647869868E+00  -2.1027074558193397E+00  -2.1015026661792198E+00  -2.1002975960953667E+00
  -2.0990922457962622E+00  -2.0978866155101232E+00  -2.0966807054649008E+00  -2.0954745158882875E+00  -2.0942680470077115E+00
  -2.0930612990503406E+00  -2.0918542722430806E+00  -2.0906469668125771E+00  -2.0894393829852151E+00  -2.0882315209871209E+00
  -2.0870233810441574E+00  -2.0858149633819303E+00  -2.0846062682257895E+00  -2.0833972958008213E+00  -2.0821880463318587E+00
  -2.0809785200434723E+00  -2.0797687171599812E+00  -2.0785586379054419E+00  -2.0773482825036584E+00  -2.0761376511781764E+00
  -2.0749267441522865E+00  -2.0737155616490264E+00  -2.0725041038911751E+00  -2.0712923711012583E+00  -2.0700803635015510E+00
  -2.0688680813140690E+00  -2.0676555247605770E+00  -2.0664426940625891E+00  -2.0652295894413650E+00  -2.0640162111179094E+00
  -2.0628025593129804E+00  -2.0615886342470815E+00  -2.0603744361404663E+00  -2.0591599652131354E+00  -2.0579452216848444E+00
  -2.0567302057750929E+00  -2.0555149177031331E+00  -2.0542993576879716E+00  -2.0530835259483617E+00  -2.0518674227028120E+00
  -2.0506510481695766E+00  -2.0494344025666713E+00  -2.0482174861118576E+00  -2.0470002990226521E+00  -2.0457828415163259E+00
  -2.0445651138099037E+00  -2.0433471161201631E+00  -2.0421288486636371E+00  -2.0409103116566150E+00  -2.0396915053151394E+00
  -2.0384724298550103E+00  -2.0372530854917810E+00  -2.0360334724407663E+00  -2.0348135909170333E+00  -2.0335934411354066E+00
  -2.0323730233104724E+00  -2.0311523376565699E+00  -2.0299313843877997E+00  -2.0287101637180189E+00  -2.0274886758608468E+00
  -2.0262669210296584E+00  -2.0250448994375918E+00  -2.0238226112975410E+00  -2.0226000568221654E+00  -2.0213772362238833E+00
  -2.0201541497148710E+00  -2.0189307975070712E+00  -2.0177071798121853E+00  -2.0164832968416806E+00  -2.0152591488067810E+00
  -2.0140347359184805E+00  -2.0128100583875299E+00  -2.0115851164244472E+00  -2.0103599102395160E+00  -2.0091344400427800E+00
  -2.0079087060440508E+00  -2.0066827084529022E+00  -2.0054564474786778E+00  -2.0042299233304837E+00  -2.0030031362171936E+00
  -2.0017760863474452E+00  -2.0005487739296468E+00  -1.9993211991719713E+00  -1.9980933622823602E+00  -1.9968652634685220E+00
  -1.9956369029379353E+00  -1.9944082808978454E+00  -1.9931793975552661E+00  -1.9919502531169826E+00  -1.9907208477895486E+00
  -1.9894911817792864E+00  -1.9882612552922920E+00  -1.9870310685344286E+00  -1.9858006217113322E+00  -1.9845699150284095E+00
  -1.9833389486908408E+00  -1.9821077229035726E+00  -1.9808762378713323E+00  -1.9796444937986122E+00  -1.9784124908896825E+00
  -1.9771802293485838E+00  -1.9759477093791338E+00  -1.9747149311849206E+00  -1.9734818949693078E+00  -1.9722486009354361E+00
  -1.9710150492862168E+00  -1.9697812402243393E+00  -1.9685471739522697E+00  -1.9673128506722464E+00  -1.9660782705862900E+00
  -1.9648434338961918E+00  -1.9636083408035212E+00  -1.9623729915096291E+00  -1.9611373862156403E+00  -1.9599015251224585E+00
  -1.9586654084307649E+00  -1.9574290363410207E+00  -1.9561924090534666E+00  -1.9549555267681191E+00  -1.9537183896847805E+00
  -1.9524809980030244E+00  -1.9512433519222141E+00  -1.9500054516414873E+00  -1.9487672973597625E+00  -1.9475288892757427E+00
  -1.9462902275879124E+00  -1.9450513124945343E+00  -1.9438121441936571E+00  -1.9425727228831091E+00  -1.9413330487605034E+00
  -1.9400931220232354E+00  -1.9388529428684835E+00  -1.9376125114932112E+00  -1.9363718280941673E+00  -1.9351308928678816E+00
  -1.9338897060106688E+00  -1.9326482677186319E+00  -1.9314065781876555E+00  -1.9301646376134152E+00  -1.9289224461913668E+00
  -1.9276800041167543E+00  -1.9264373115846101E+00  -1.9251943687897517E+00  -1.9239511759267840E+00  -1.9227077331901010E+00
  -1.9214640407738810E+00  -1.9202200988720954E+00  -1.9189759076785000E+00  -1.9177314673866415E+00  -1.9164867781898542E+00
  -1.9152418402812637E+00  -1.9139966538537823E+00  -1.9127512191001161E+00  -1.9115055362127591E+00  -1.9102596053839969E+00
  -1.9090134268059038E+00  -1.9077670006703482E+00  -1.9065203271689906E+00  -1.9052734064932786E+00  -1.9040262388344558E+00
  -1.9027788243835582E+00  -1.9015311633314136E+00  -1.9002832558686422E+00  -1.8990351021856586E+00  -1.8977867024726707E+00
  -1.8965380569196797E+00  -1.8952891657164823E+00  -1.8940400290526695E+00  -1.8927906471176259E+00  -1.8915410201005298E+00
  -1.8902911481903617E+00  -1.8890410315758890E+00  -1.8877906704456819E+00  -1.8865400649881015E+00  -1.8852892153913123E+00
  -1.8840381218432682E+00  -1.8827867845317237E+00  -1.8815352036442330E+00  -1.8802833793681433E+00  -1.8790313118906039E+00
  -1.8777790013985614E+00  -1.8765264480787571E+00  -1.8752736521177380E+00  -1.8740206137018469E+00  -1.8727673330172232E+00
  -1.8715138102498119E+00  -1.8702600455853526E+00  -1.8690060392093897E+00  -1.8677517913072661E+00  -1.8664973020641260E+00
  -1.8652425716649117E+00  -1.8639876002943736E+00  -1.8627323881370583E+00  -1.8614769353773168E+00  -1.8602212421993021E+00
  -1.8589653087869702E+00  -1.8577091353240778E+00  -1.8564527219941893E+00  -1.8551960689806679E+00  -1.8539391764666813E+00
  -1.8526820446352035E+00  -1.8514246736690132E+00  -1.8501670637506893E+00  -1.8489092150626214E+00  -1.8476511277870007E+00
  -1.8463928021058220E+00  -1.8451342382008891E+00  -1.8438754362538119E+00  -1.8426163964460056E+00  -1.8413571189586926E+00
  -1.8400976039728980E+00  -1.8388378516694601E+00  -1.8375778622290218E+00  -1.8363176358320317E+00  -1.8350571726587508E+00
  -1.8337964728892429E+00  -1.8325355367033851E+00  -1.8312743642808598E+00  -1.8300129558011617E+00  -1.8287513114435905E+00
  -1.8274894313872592E+00  -1.8262273158110882E+00  -1.8249649648938098E+00  -1.8237023788139648E+00  -1.8224395577499044E+00
  -1.8211765018797947E+00  -1.8199132113816081E+00  -1.8186496864331323E+00  -1.8173859272119615E+00  -1.8161219338955057E+00
  -1.8148577066609888E+00  -1.8135932456854422E+00  -1.8123285511457146E+00  -1.8110636232184640E+00  -1.8097984620801644E+00
  -1.8085330679071030E+00  -1.8072674408753784E+00  -1.8060015811609060E+00  -1.8047354889394138E+00  -1.8034691643864453E+00
  -1.8022026076773590E+00  -1.8009358189873268E+00  -1.7996687984913380E+00  -1.7984015463641971E+00  -1.7971340627805239E+00
  -1.7958663479147536E+00  -1.7945984019411392E+00  -1.7933302250337499E+00  -1.7920618173664726E+00  -1.7907931791130081E+00
  -1.7895243104468783E+00  -1.7882552115414225E+00  -1.7869858825697962E+00  -1.7857163237049716E+00  -1.7844465351197440E+00
  -1.7831765169867242E+00  -1.7819062694783434E+00  -1.7806357927668481E+00  -1.7793650870243118E+00  -1.7780941524226201E+00
  -1.7768229891334824E+00  -1.7755515973284277E+00  -1.7742799771788056E+00  -1.7730081288557862E+00  -1.7717360525303603E+00
  -1.7704637483733390E+00  -1.7691912165553572E+00  -1.7679184572468705E+00  -1.7666454706181562E+00  -1.7653722568393131E+00
  -1.7640988160802631E+00  -1.7628251485107505E+00  -1.7615512543003442E+00  -1.7602771336184326E+00  -1.7590027866342333E+00
  -1.7577282135167804E+00  -1.7564534144349382E+00  -1.7551783895573925E+00  -1.7539031390526518E+00  -1.7526276630890520E+00
  -1.7513519618347546E+00  -1.7500760354577420E+00  -1.7487998841258261E+00  -1.7475235080066425E+00  -1.7462469072676527E+00
  -1.7449700820761449E+00  -1.7436930325992341E+00  -1.7424157590038607E+00  -1.7411382614567918E+00  -1.7398605401246221E+00
  -1.7385825951737739E+00  -1.7373044267704987E+00  -1.7360260350808703E+00  -1.7347474202707962E+00  -1.7334685825060105E+00
  -1.7321895219520740E+00  -1.7309102387743782E+00  -1.7296307331381429E+00  -1.7283510052084168E+00  -1.7270710551500781E+00
  -1.7257908831278361E+00  -1.7245104893062273E+00  -1.7232298738496206E+00  -1.7219490369222148E+00  -1.7206679786880370E+00
  -1.7193866993109495E+00  -1.7181051989546432E+00  -1.7168234777826386E+00  -1.7155415359582904E+00  -1.7142593736447849E+00
  -1.7129769910051387E+00  -1.7116943882022011E+00  -1.7104115653986554E+00  -1.7091285227570159E+00  -1.7078452604396315E+00
  -1.7065617786086826E+00  -1.7052780774261820E+00  -1.7039941570539794E+00  -1.7027100176537544E+00  -1.7014256593870263E+00
  -1.7001410824151428E+00  -1.6988562868992887E+00  -1.6975712730004815E+00  -1.6962860408795797E+00  -1.6950005906972689E+00
  -1.6937149226140751E+00  -1.6924290367903607E+00  -1.6911429333863193E+00  -1.6898566125619834E+00  -1.6885700744772232E+00
  -1.6872833192917425E+00  -1.6859963471650850E+00  -1.6847091582566274E+00  -1.6834217527255881E+00  -1.6821341307310185E+00
  -1.6808462924318106E+00  -1.6795582379866920E+00  -1.6782699675542330E+00  -1.6769814812928376E+00  -1.6756927793607481E+00
  -1.6744038619160480E+00  -1.6731147291166584E+00  -1.6718253811203410E+00  -1.6705358180846943E+00  -1.6692460401671594E+00
  -1.6679560475250175E+00  -1.6666658403153847E+00  -1.6653754186952203E+00  -1.6640847828213288E+00  -1.6627939328503476E+00
  -1.6615028689387592E+00  -1.6602115912428881E+00  -1.6589200999188978E+00  -1.6576283951227933E+00  -1.6563364770104223E+00
  -1.6550443457374755E+00  -1.6537520014594829E+00  -1.6524594443318203E+00  -1.6511666745097049E+00  -1.6498736921481938E+00
  -1.6485804974021911E+00  -1.6472870904264438E+00  -1.6459934713755389E+00  -1.6446996404039109E+00  -1.6434055976658377E+00
  -1.6421113433154360E+00  -1.6408168775066760E+00  -1.6395222003933647E+00  -1.6382273121291575E+00  -1.6369322128675530E+00
  -1.6356369027618969E+00  -1.6343413819653783E+00  -1.6330456506310318E+00  -1.6317497089117403E+00  -1.6304535569602301E+00
  -1.6291571949290753E+00  -1.6278606229706942E+00  -1.6265638412373542E+00  -1.6252668498811680E+00  -1.6239696490540947E+00
  -1.6226722389079427E+00  -1.6213746195943659E+00  -1.6200767912648681E+00  -1.6187787540707961E+00  -1.6174805081633525E+00
  -1.6161820536935796E+00  -1.6148833908123743E+00  -1.6135845196704790E+00  -1.6122854404184861E+00  -1.6109861532068368E+00
  -1.6096866581858211E+00  -1.6083869555055805E+00  -1.6070870453161024E+00  -1.6057869277672263E+00  -1.6044866030086427E+00
  -1.6031860711898898E+00  -1.6018853324603581E+00  -1.6005843869692877E+00  -1.5992832348657715E+00  -1.5979818762987505E+00
  -1.5966803114170189E+00  -1.5953785403692218E+00  -1.5940765633038552E+00  -1.5927743803692682E+00  -1.5914719917136617E+00
  -1.5901693974850872E+00  -1.5888665978314511E+00  -1.5875635929005103E+00  -1.5862603828398749E+00  -1.5849569677970097E+00
  -1.5836533479192294E+00  -1.5823495233537057E+00  -1.5810454942474617E+00  -1.5797412607473746E+00  -1.5784368230001755E+00
  -1.5771321811524508E+00  -1.5758273353506405E+00  -1.5745222857410384E+00  -1.5732170324697918E+00  -1.5719115756829061E+00
  -1.5706059155262422E+00  -1.5693000521455125E+00  -1.5679939856862866E+00  -1.5666877162939907E+00  -1.5653812441139068E+00
  -1.5640745692911731E+00  -1.5627676919707800E+00  -1.5614606122975818E+00  -1.5601533304162829E+00  -1.5588458464714476E+00
  -1.5575381606074958E+00  -1.5562302729687081E+00  -1.5549221836992171E+00  -1.5536138929430166E+00  -1.5523054008439565E+00
  -1.5509967075457451E+00  -1.5496878131919520E+00  -1.5483787179259987E+00  -1.5470694218911702E+00  -1.5457599252306082E+00
  -1.5444502280873160E+00  -1.5431403306041493E+00  -1.5418302329238311E+00  -1.5405199351889394E+00  -1.5392094375419119E+00
  -1.5378987401250475E+00  -1.5365878430805038E+00  -1.5352767465503008E+00  -1.5339654506763143E+00  -1.5326539556002861E+00
  -1.5313422614638155E+00  -1.5300303684083623E+00  -1.5287182765752489E+00  -1.5274059861056599E+00  -1.5260934971406386E+00
  -1.5247808098210909E+00  -1.5234679242877842E+00  -1.5221548406813519E+00  -1.5208415591422824E+00  -1.5195280798109323E+00
  -1.5182144028275182E+00  -1.5169005283321191E+00  -1.5155864564646782E+00  -1.5142721873650025E+00  -1.5129577211727578E+00
  -1.5116430580274778E+00  -1.5103281980685592E+00  -1.5090131414352628E+00  -1.5076978882667083E+00  -1.5063824387018860E+00
  -1.5050667928796486E+00  -1.5037509509387104E+00  -1.5024349130176542E+00  -1.5011186792549249E+00  -1.4998022497888344E+00
  -1.4984856247575571E+00  -1.4971688042991369E+00  -1.4958517885514786E+00  -1.4945345776523562E+00  -1.4932171717394080E+00
  -1.4918995709501381E+00  -1.4905817754219168E+00  -1.4892637852919837E+00  -1.4879456006974399E+00  -1.4866272217752565E+00
  -1.4853086486622733E+00  -1.4839898814951917E+00  -1.4826709204105832E+00  -1.4813517655448896E+00  -1.4800324170344152E+00
  -1.4787128750153362E+00  -1.4773931396236943E+00  -1.4760732109953993E+00  -1.4747530892662317E+00  -1.4734327745718396E+00
  -1.4721122670477338E+00  -1.4707915668293037E+00  -1.4694706740518007E+00  -1.4681495888503493E+00  -1.4668283113599396E+00
  -1.4655068417154338E+00  -1.4641851800515642E+00  -1.4628633265029296E+00  -1.4615412812040012E+00  -1.4602190442891201E+00
  -1.4588966158925001E+00  -1.4575739961482186E+00  -1.4562511851902293E+00  -1.4549281831523579E+00  -1.4536049901682957E+00
  -1.4522816063716084E+00  -1.4509580318957331E+00  -1.4496342668739770E+00  -1.4483103114395204E+00  -1.4469861657254139E+00
  -1.4456618298645809E+00  -1.4443373039898166E+00  -1.4430125882337890E+00  -1.4416876827290377E+00  -1.4403625876079769E+00
  -1.4390373030028889E+00  -1.4377118290459348E+00  -1.4363861658691444E+00  -1.4350603136044240E+00  -1.4337342723835496E+00
  -1.4324080423381755E+00  -1.4310816235998243E+00  -1.4297550162998964E+00  -1.4284282205696643E+00  -1.4271012365402773E+00
  -1.4257740643427561E+00  -1.4244467041079971E+00  -1.4231191559667711E+00  -1.4217914200497261E+00  -1.4204634964873804E+00
  -1.4191353854101301E+00  -1.4178070869482486E+00  -1.4164786012318817E+00  -1.4151499283910516E+00  -1.4138210685556580E+00
  -1.4124920218554744E+00  -1.4111627884201519E+00  -1.4098333683792161E+00  -1.4085037618620693E+00  -1.4071739689979939E+00
  -1.4058439899161448E+00  -1.4045138247455560E+00  -1.4031834736151367E+00  -1.4018529366536756E+00  -1.4005222139898381E+00
  -1.3991913057521657E+00  -1.3978602120690780E+00  -1.3965289330688746E+00  -1.3951974688797304E+00  -1.3938658196297000E+00
  -1.3925339854467160E+00  -1.3912019664585880E+00  -1.3898697627930072E+00  -1.3885373745775422E+00  -1.3872048019396384E+00
  -1.3858720450066206E+00  -1.3845391039056991E+00  -1.3832059787639537E+00  -1.3818726697083510E+00  -1.3805391768657345E+00
  -1.3792055003628276E+00  -1.3778716403262359E+00  -1.3765375968824403E+00  -1.3752033701578066E+00  -1.3738689602785776E+00
  -1.3725343673708816E+00  -1.3711995915607211E+00  -1.3698646329739861E+00  -1.3685294917364403E+00  -1.3671941679737347E+00
  -1.3658586618114001E+00  -1.3645229733748470E+00  -1.3631871027893696E+00  -1.3618510501801417E+00  -1.3605148156722204E+00
  -1.3591783993905460E+00  -1.3578418014599392E+00  -1.3565050220051011E+00  -1.3551680611506209E+00  -1.3538309190209654E+00
  -1.3524935957404858E+00  -1.3511560914334200E+00  -1.3498184062238816E+00  -1.3484805402358717E+00  -1.3471424935932768E+00
  -1.3458042664198628E+00  -1.3444658588392806E+00  -1.3431272709750657E+00  -1.3417885029506387E+00  -1.3404495548893005E+00
  -1.3391104269142409E+00  -1.3377711191485289E+00  -1.3364316317151235E+00  -1.3350919647368640E+00  -1.3337521183364760E+00
  -1.3324120926365715E+00  -1.3310718877596468E+00  -1.3297315038280808E+00  -1.3283909409641432E+00  -1.3270501992899848E+00
  -1.3257092789276423E+00  -1.3243681799990408E+00  -1.3230269026259882E+00  -1.3216854469301811E+00  -1.3203438130332026E+00
  -1.3190020010565195E+00  -1.3176600111214873E+00  -1.3163178433493474E+00  -1.3149754978612285E+00  -1.3136329747781439E+00
  -1.3122902742210003E+00  -1.3109473963105820E+00  -1.3096043411675702E+00  -1.3082611089125264E+00  -1.3069176996659051E+00
  -1.3055741135480463E+00  -1.3042303506791739E+00  -1.3028864111794085E+00  -1.3015422951687516E+00  -1.3001980027670970E+00
  -1.2988535340942247E+00  -1.2975088892698046E+00  -1.2961640684133953E+00  -1.2948190716444441E+00  -1.2934738990822843E+00
  -1.2921285508461466E+00  -1.2907830270551406E+00  -1.2894373278282736E+00  -1.2880914532844370E+00  -1.2867454035424182E+00
  -1.2853991787208858E+00  -1.2840527789384049E+00  -1.2827062043134290E+00  -1.2813594549643024E+00  -1.2800125310092565E+00
  -1.2786654325664184E+00  -1.2773181597538033E+00  -1.2759707126893156E+00  -1.2746230914907513E+00  -1.2732752962758009E+00
  -1.2719273271620419E+00  -1.2705791842669458E+00  -1.2692308677078741E+00  -1.2678823776020793E+00  -1.2665337140667072E+00
  -1.2651848772187937E+00  -1.2638358671752714E+00  -1.2624866840529585E+00  -1.2611373279685696E+00  -1.2597877990387085E+00
  -1.2584380973798754E+00  -1.2570882231084601E+00  -1.2557381763407478E+00  -1.2543879571929137E+00  -1.2530375657810298E+00
  -1.2516870022210558E+00  -1.2503362666288496E+00  -1.2489853591201603E+00  -1.2476342798106319E+00  -1.2462830288157989E+00
  -1.2449316062510942E+00  -1.2435800122318423E+00  -1.2422282468732626E+00  -1.2408763102904643E+00  -1.2395242025984585E+00
  -1.2381719239121449E+00  -1.2368194743463201E+00  -1.2354668540156761E+00  -1.2341140630347975E+00  -1.2327611015181665E+00
  -1.2314079695801574E+00  -1.2300546673350412E+00  -1.2287011948969859E+00  -1.2273475523800534E+00  -1.2259937398982006E+00
  -1.2246397575652803E+00  -1.2232856054950441E+00  -1.2219312838011347E+00  -1.2205767925970943E+00  -1.2192221319963612E+00
  -1.2178673021122686E+00  -1.2165123030580463E+00  -1.2151571349468231E+00  -1.2138017978916209E+00  -1.2124462920053625E+00
  -1.2110906174008633E+00  -1.2097347741908397E+00  -1.2083787624879034E+00  -1.2070225824045639E+00  -1.2056662340532280E+00
  -1.2043097175461994E+00  -1.2029530329956823E+00  -1.2015961805137743E+00  -1.2002391602124756E+00  -1.1988819722036816E+00
  -1.1975246165991880E+00  -1.1961670935106850E+00  -1.1948094030497671E+00  -1.1934515453279206E+00  -1.1920935204565370E+00
  -1.1907353285469033E+00  -1.1893769697102048E+00  -1.1880184440575279E+00  -1.1866597516998563E+00  -1.1853008927480764E+00
  -1.1839418673129687E+00  -1.1825826755052180E+00  -1.1812233174354079E+00  -1.1798637932140190E+00  -1.1785041029514352E+00
  -1.1771442467579378E+00  -1.1757842247437111E+00  -1.1744240370188379E+00  -1.1730636836933004E+00  -1.1717031648769831E+00
  -1.1703424806796714E+00  -1.1689816312110504E+00  -1.1676206165807064E+00  -1.1662594368981265E+00  -1.1648980922726984E+00
  -1.1635365828137132E+00  -1.1621749086303605E+00  -1.1608130698317345E+00  -1.1594510665268287E+00  -1.1580888988245388E+00
  -1.1567265668336613E+00  -1.1553640706628969E+00  -1.1540014104208489E+00  -1.1526385862160173E+00  -1.1512755981568121E+00
  -1.1499124463515396E+00  -1.1485491309084128E+00  -1.1471856519355441E+00  -1.1458220095409490E+00  -1.1444582038325504E+00
  -1.1430942349181670E+00  -1.1417301029055256E+00  -1.1403658079022563E+00  -1.1390013500158902E+00  -1.1376367293538625E+00
  -1.1362719460235131E+00  -1.1349070001320851E+00  -1.1335418917867242E+00  -1.1321766210944808E+00  -1.1308111881623095E+00
  -1.1294455930970708E+00  -1.1280798360055255E+00  -1.1267139169943421E+00  -1.1253478361700933E+00  -1.1239815936392534E+00
  -1.1226151895082057E+00  -1.1212486238832347E+00  -1.1198818968705322E+00  -1.1185150085761935E+00  -1.1171479591062199E+00
  -1.1157807485665188E+00  -1.1144133770629001E+00  -1.1130458447010836E+00  -1.1116781515866914E+00  -1.1103102978252497E+00
  -1.1089422835221965E+00  -1.1075741087828690E+00  -1.1062057737125164E+00  -1.1048372784162912E+00  -1.1034686229992499E+00
  -1.1020998075663599E+00  -1.1007308322224938E+00  -1.0993616970724278E+00  -1.0979924022208485E+00  -1.0966229477723468E+00
  -1.0952533338314214E+00  -1.0938835605024808E+00  -1.0925136278898364E+00  -1.0911435360977084E+00  -1.0897732852302240E+00
  -1.0884028753914206E+00  -1.0870323066852399E+00  -1.0856615792155306E+00  -1.0842906930860550E+00  -1.0829196484004764E+00
  -1.0815484452623694E+00  -1.0801770837752189E+00  -1.0788055640424130E+00  -1.0774338861672510E+00  -1.0760620502529414E+00
  -1.0746900564026001E+00  -1.0733179047192511E+00  -1.0719455953058306E+00  -1.0705731282651767E+00  -1.0692005037000447E+00
  -1.0678277217130934E+00  -1.0664547824068924E+00  -1.0650816858839216E+00  -1.0637084322465684E+00  -1.0623350215971330E+00
  -1.0609614540378212E+00  -1.0595877296707499E+00  -1.0582138485979469E+00  -1.0568398109213506E+00  -1.0554656167428078E+00
  -1.0540912661640744E+00  -1.0527167592868203E+00  -1.0513420962126230E+00  -1.0499672770429689E+00  -1.0485923018792584E+00
  -1.0472171708228022E+00  -1.0458418839748198E+00  -1.0444664414364442E+00  -1.0430908433087147E+00  -1.0417150896925875E+00
  -1.0403391806889282E+00  -1.0389631163985102E+00  -1.0375868969220223E+00  -1.0362105223600644E+00  -1.0348339928131445E+00
  -1.0334573083816863E+00  -1.0320804691660255E+00  -1.0307034752664057E+00  -1.0293263267829873E+00  -1.0279490238158382E+00
  -1.0265715664649429E+00  -1.0251939548301940E+00  -1.0238161890113999E+00  -1.0224382691082816E+00  -1.0210601952204690E+00
  -1.0196819674475091E+00  -1.0183035858888589E+00  -1.0169250506438905E+00  -1.0155463618118856E+00  -1.0141675194920432E+00
  -1.0127885237834733E+00  -1.0114093747852000E+00  -1.0100300725961577E+00  -1.0086506173152003E+00  -1.0072710090410915E+00
  -1.0058912478725084E+00  -1.0045113339080431E+00  -1.0031312672462007E+00  -1.0017510479854026E+00  -1.0003706762239812E+00
  -9.9899015206018593E-01  -9.9760947559218072E-01  -9.9622864691803958E-01  -9.9484766613575548E-01  -9.9346653334323332E-01
  -9.9208524863829739E-01  -9.9070381211868019E-01  -9.8932222388203284E-01  -9.8794048402592194E-01  -9.8655859264782908E-01
  -9.8517654984514880E-01  -9.8379435571519214E-01  -9.8241201035518688E-01  -9.8102951386227644E-01  -9.7964686633351639E-01
  -9.7826406786588183E-01  -9.7688111855626003E-01  -9.7549801850146112E-01  -9.7411476779820183E-01  -9.7273136654312065E-01
  -9.7134781483277199E-01  -9.6996411276362726E-01  -9.6858026043206868E-01  -9.6719625793440145E-01  -9.6581210536684570E-01
  -9.6442780282553697E-01  -9.6304335040652744E-01  -9.6165874820578545E-01  -9.6027399631920041E-01  -9.5888909484257467E-01
  -9.5750404387162902E-01  -9.5611884350200083E-01  -9.5473349382924577E-01  -9.5334799494883826E-01  -9.5196234695616633E-01
  -9.5057654994653906E-01  -9.4919060401518429E-01  -9.4780450925724058E-01  -9.4641826576777333E-01  -9.4503187364176100E-01
  -9.4364533297409925E-01  -9.4225864385960667E-01  -9.4087180639301571E-01  -9.3948482066897754E-01  -9.3809768678206407E-01
  -9.3671040482676515E-01  -9.3532297489748784E-01  -9.3393539708855966E-01  -9.3254767149422502E-01  -9.3115979820864925E-01
  -9.2977177732591543E-01  -9.2838360894002581E-01  -9.2699529314490381E-01  -9.2560683003438948E-01  -9.2421821970224161E-01
  -9.2282946224214235E-01  -9.2144055774769051E-01  -9.2005150631240473E-01  -9.1866230802972415E-01  -9.1727296299300853E-01
  -9.1588347129553649E-01  -9.1449383303050558E-01  -9.1310404829103475E-01  -9.1171411717016315E-01  -9.1032403976085130E-01
  -9.0893381615597613E-01  -9.0754344644834151E-01  -9.0615293073066538E-01  -9.0476226909559132E-01  -9.0337146163567850E-01
  -9.0198050844341215E-01  -9.0058940961119549E-01  -8.9919816523135443E-01  -8.9780677539613285E-01  -8.9641524019769980E-01
  -8.9502355972814529E-01  -8.9363173407947427E-01  -8.9223976334362221E-01  -8.9084764761244051E-01  -8.8945538697770277E-01
  -8.8806298153110774E-01  -8.8667043136427204E-01  -8.8527773656873465E-01  -8.8388489723595898E-01  -8.8249191345732880E-01
  -8.8109878532414920E-01  -8.7970551292765120E-01  -8.7831209635898000E-01  -8.7691853570921507E-01  -8.7552483106934798E-01
  -8.7413098253030042E-01  -8.7273699018291206E-01  -8.7134285411794343E-01  -8.6994857442608631E-01  -8.6855415119794621E-01
  -8.6715958452405806E-01  -8.6576487449487705E-01  -8.6437002120078144E-01  -8.6297502473207255E-01  -8.6157988517897977E-01
  -8.6018460263164953E-01  -8.5878917718015346E-01  -8.5739360891448957E-01  -8.5599789792457659E-01  -8.5460204430025977E-01
  -8.5320604813130596E-01  -8.5180990950740754E-01  -8.5041362851817914E-01  -8.4901720525316049E-01  -8.4762063980181734E-01
  -8.4622393225353643E-01  -8.4482708269763218E-01  -8.4343009122333878E-01  -8.4203295791982224E-01  -8.4063568287616675E-01
  -8.3923826618138475E-01  -8.3784070792440923E-01  -8.3644300819410511E-01  -8.3504516707925747E-01  -8.3364718466857624E-01
  -8.3224906105069851E-01  -8.3085079631418501E-01  -8.2945239054752318E-01  -8.2805384383912450E-01  -8.2665515627732877E-01
  -8.2525632795039594E-01  -8.2385735894651824E-01  -8.2245824935380651E-01  -8.2105899926030612E-01  -8.1965960875398003E-01
  -8.1826007792272160E-01  -8.1686040685434880E-01  -8.1546059563660644E-01  -8.1406064435716718E-01  -8.1266055310362484E-01
  -8.1126032196350650E-01  -8.0985995102425912E-01  -8.0845944037326256E-01  -8.0705879009781467E-01  -8.0565800028515266E-01
  -8.0425707102242883E-01  -8.0285600239672528E-01  -8.0145479449505619E-01  -8.0005344740435835E-01  -7.9865196121149673E-01
  -7.9725033600326267E-01  -7.9584857186637570E-01  -7.9444666888748261E-01  -7.9304462715315782E-01  -7.9164244674990147E-01
  -7.9024012776414443E-01  -7.8883767028224316E-01  -7.8743507439048110E-01  -7.8603234017507473E-01  -7.8462946772216158E-01
  -7.8322645711781058E-01  -7.8182330844801573E-01  -7.8042002179870718E-01  -7.7901659725573558E-01  -7.7761303490488110E-01
  -7.7620933483185450E-01  -7.7480549712229452E-01  -7.7340152186176769E-01  -7.7199740913576798E-01  -7.7059315902972192E-01
  -7.6918877162898169E-01  -7.6778424701882630E-01  -7.6637958528447103E-01  -7.6497478651105466E-01  -7.6356985078364581E-01
  -7.6216477818724038E-01  -7.6075956880676920E-01  -7.5935422272708553E-01  -7.5794874003297952E-01  -7.5654312080916453E-01
  -7.5513736514028706E-01  -7.5373147311091981E-01  -7.5232544480556796E-01  -7.5091928030867072E-01  -7.4951297970458564E-01
  -7.4810654307761226E-01  -7.4669997051197001E-01  -7.4529326209181723E-01  -7.4388641790123899E-01  -7.4247943802424854E-01
  -7.4107232254479083E-01  -7.3966507154674344E-01  -7.3825768511391066E-01  -7.3685016333003006E-01  -7.3544250627876784E-01
  -7.3403471404372678E-01  -7.3262678670842962E-01  -7.3121872435634006E-01  -7.2981052707084937E-01  -7.2840219493527647E-01
  -7.2699372803287621E-01  -7.2558512644683315E-01  -7.2417639026026281E-01  -7.2276751955620933E-01  -7.2135851441765386E-01
  -7.1994937492750488E-01  -7.1854010116860401E-01  -7.1713069322372280E-01  -7.1572115117556645E-01  -7.1431147510677195E-01
  -7.1290166509990627E-01  -7.1149172123746951E-01  -7.1008164360189607E-01  -7.0867143227554685E-01  -7.0726108734072046E-01
  -7.0585060887964435E-01  -7.0443999697447846E-01  -7.0302925170731800E-01  -7.0161837316018749E-01  -7.0020736141504469E-01
  -6.9879621655378021E-01  -6.9738493865822004E-01  -6.9597352781011779E-01  -6.9456198409116143E-01  -6.9315030758297480E-01
  -6.9173849836711387E-01  -6.9032655652506092E-01  -6.8891448213824302E-01  -6.8750227528801278E-01  -6.8608993605565449E-01
  -6.8467746452239220E-01  -6.8326486076937842E-01  -6.8185212487770175E-01  -6.8043925692837970E-01  -6.7902625700237129E-01
  -6.7761312518056316E-01  -6.7619986154377587E-01  -6.7478646617276727E-01  -6.7337293914822816E-01  -6.7195928055077814E-01
  -6.7054549046097767E-01  -6.6913156895931913E-01  -6.6771751612622765E-01  -6.6630333204206360E-01  -6.6488901678712287E-01
  -6.6347457044163116E-01  -6.6205999308575436E-01  -6.6064528479959184E-01  -6.5923044566317279E-01  -6.5781547575646593E-01
  -6.5640037515937399E-01  -6.5498514395173313E-01  -6.5356978221331474E-01  -6.5215429002382830E-01  -6.5073866746291109E-01
  -6.4932291461014091E-01  -6.4790703154503171E-01  -6.4649101834703038E-01  -6.4507487509551853E-01  -6.4365860186981361E-01
  -6.4224219874916988E-01  -6.4082566581277500E-01  -6.3940900313975468E-01  -6.3799221080916746E-01  -6.3657528890001047E-01
  -6.3515823749121336E-01  -6.3374105666164704E-01  -6.3232374649011025E-01  -6.3090630705534811E-01  -6.2948873843602882E-01
  -6.2807104071076902E-01  -6.2665321395811502E-01  -6.2523525825655024E-01  -6.2381717368449596E-01  -6.2239896032030806E-01
  -6.2098061824228012E-01  -6.1956214752864036E-01  -6.1814354825755757E-01  -6.1672482050713384E-01  -6.1530596435540852E-01
  -6.1388697988035601E-01  -6.1246786715989376E-01  -6.1104862627187118E-01  -6.0962925729407413E-01  -6.0820976030422680E-01
  -6.0679013537999171E-01  -6.0537038259896880E-01  -6.0395050203869272E-01  -6.0253049377663725E-01  -6.0111035789021250E-01
  -5.9969009445676813E-01  -5.9826970355358799E-01  -5.9684918525789898E-01  -5.9542853964685793E-01  -5.9400776679756739E-01
  -5.9258686678706307E-01  -5.9116583969231828E-01  -5.8974468559024718E-01  -5.8832340455769938E-01  -5.8690199667146459E-01
  -5.8548046200826820E-01  -5.8405880064477611E-01  -5.8263701265759149E-01  -5.8121509812325489E-01  -5.7979305711824736E-01
  -5.7837088971898776E-01  -5.7694859600183201E-01  -5.7552617604307654E-01  -5.7410362991895736E-01  -5.7268095770564198E-01
  -5.7125815947924852E-01  -5.6983523531582236E-01  -5.6841218529135829E-01  -5.6698900948178010E-01  -5.6556570796295835E-01
  -5.6414228081069906E-01  -5.6271872810074786E-01  -5.6129504990879020E-01  -5.5987124631045104E-01  -5.5844731738129294E-01
  -5.5702326319682016E-01  -5.5559908383247492E-01  -5.5417477936364112E-01  -5.5275034986563854E-01  -5.5132579541373194E-01
  -5.4990111608311820E-01  -5.4847631194894397E-01  -5.4705138308628609E-01  -5.4562632957016843E-01  -5.4420115147555126E-01
  -5.4277584887733310E-01  -5.4135042185036186E-01  -5.3992487046941384E-01  -5.3849919480921116E-01  -5.3707339494441686E-01
  -5.3564747094963350E-01  -5.3422142289940444E-01  -5.3279525086821400E-01  -5.3136895493048297E-01  -5.2994253516058110E-01
  -5.2851599163280938E-01  -5.2708932442141665E-01  -5.2566253360058701E-01  -5.2423561924445328E-01  -5.2280858142707931E-01
  -5.2138142022247635E-01  -5.1995413570459825E-01  -5.1852672794733479E-01  -5.1709919702451934E-01  -5.1567154300992579E-01
  -5.1424376597727128E-01  -5.1281586600021345E-01  -5.1138784315234975E-01  -5.0995969750722059E-01  -5.0853142913830884E-01
  -5.0710303811903679E-01  -5.0567452452276951E-01  -5.0424588842281448E-01  -5.0281712989242155E-01  -5.0138824900477752E-01
  -4.9995924583301976E-01  -4.9853012045021905E-01  -4.9710087292939520E-01  -4.9567150334350257E-01  -4.9424201176544563E-01
  -4.9281239826806628E-01  -4.9138266292414845E-01  -4.8995280580642347E-01  -4.8852282698755783E-01  -4.8709272654016644E-01
  -4.8566250453680149E-01  -4.8423216104996641E-01  -4.8280169615209612E-01  -4.8137110991557575E-01  -4.7994040241273001E-01
  -4.7850957371583136E-01  -4.7707862389708838E-01  -4.7564755302865502E-01  -4.7421636118263161E-01  -4.7278504843105734E-01
  -4.7135361484591465E-01  -4.6992206049913332E-01  -4.6849038546258270E-01  -4.6705858980807630E-01  -4.6562667360736970E-01
  -4.6419463693216306E-01  -4.6276247985410485E-01  -4.6133020244477768E-01  -4.5989780477571429E-01  -4.5846528691838773E-01
  -4.5703264894422047E-01  -4.5559989092457054E-01  -4.5416701293074718E-01  -4.5273401503399718E-01  -4.5130089730551659E-01
  -4.4986765981644239E-01  -4.4843430263785716E-01  -4.4700082584078815E-01  -4.4556722949620192E-01  -4.4413351367501513E-01
  -4.4269967844808888E-01  -4.4126572388622326E-01  -4.3983165006016745E-01  -4.3839745704061134E-01  -4.3696314489819371E-01
  -4.3552871370349577E-01  -4.3409416352704089E-01  -4.3265949443930468E-01  -4.3122470651069672E-01  -4.2978979981158127E-01
  -4.2835477441226094E-01  -4.2691963038298703E-01  -4.2548436779395343E-01  -4.2404898671530000E-01  -4.2261348721711389E-01
  -4.2117786936942303E-01  -4.1974213324220405E-01  -4.1830627890537653E-01  -4.1687030642880768E-01  -4.1543421588230994E-01
  -4.1399800733563696E-01  -4.1256168085849343E-01  -4.1112523652052835E-01  -4.0968867439133144E-01  -4.0825199454044436E-01
  -4.0681519703735380E-01  -4.0537828195148706E-01  -4.0394124935222303E-01  -4.0250409930888076E-01  -4.0106683189073300E-01
  -3.9962944716699250E-01  -3.9819194520681850E-01  -3.9675432607931832E-01  -3.9531658985354434E-01  -3.9387873659849576E-01
  -3.9244076638311814E-01  -3.9100267927630222E-01  -3.8956447534688626E-01  -3.8812615466365458E-01  -3.8668771729533674E-01
  -3.8524916331061204E-01  -3.8381049277810492E-01  -3.8237170576638285E-01  -3.8093280234396659E-01  -3.7949378257931832E-01
  -3.7805464654085025E-01  -3.7661539429691843E-01  -3.7517602591582944E-01  -3.7373654146583402E-01  -3.7229694101513133E-01
  -3.7085722463186693E-01  -3.6941739238413218E-01  -3.6797744433997176E-01  -3.6653738056736734E-01  -3.6509720113425836E-01
  -3.6365690610852591E-01  -3.6221649555800023E-01  -3.6077596955045416E-01  -3.5933532815361746E-01  -3.5789457143515924E-01
  -3.5645369946269945E-01  -3.5501271230380738E-01  -3.5357161002599602E-01  -3.5213039269673074E-01  -3.5068906038341846E-01
  -3.4924761315342290E-01  -3.4780605107404683E-01  -3.4636437421254751E-01  -3.4492258263612330E-01  -3.4348067641192970E-01
  -3.4203865560706570E-01  -3.4059652028857557E-01  -3.3915427052345687E-01  -3.3771190637865284E-01  -3.3626942792105619E-01
  -3.3482683521750434E-01  -3.3338412833479153E-01  -3.3194130733965144E-01  -3.3049837229877016E-01  -3.2905532327878434E-01
  -3.2761216034627955E-01  -3.2616888356778406E-01  -3.2472549300977904E-01  -3.2328198873869646E-01  -3.2183837082091321E-01
  -3.2039463932275941E-01  -3.1895079431050954E-01  -3.1750683585038969E-01  -3.1606276400857680E-01  -3.1461857885118999E-01
  -3.1317428044430862E-01  -3.1172986885395071E-01  -3.1028534414609021E-01  -3.0884070638664490E-01  -3.0739595564148992E-01
  -3.0595109197644410E-01  -3.0450611545727391E-01  -3.0306102614970187E-01  -3.0161582411939269E-01  -3.0017050943197066E-01
  -2.9872508215299870E-01  -2.9727954234799464E-01  -2.9583389008242861E-01  -2.9438812542171811E-01  -2.9294224843122824E-01
  -2.9149625917627908E-01  -2.9005015772213577E-01  -2.8860394413401491E-01  -2.8715761847708743E-01  -2.8571118081646729E-01
  -2.8426463121722551E-01  -2.8281796974438023E-01  -2.8137119646289827E-01  -2.7992431143769714E-01  -2.7847731473364928E-01
  -2.7703020641557435E-01  -2.7558298654824059E-01  -2.7413565519636868E-01  -2.7268821242463043E-01  -2.7124065829765137E-01
  -2.6979299288000086E-01  -2.6834521623620172E-01  -2.6689732843073044E-01  -2.6544932952801154E-01  -2.6400121959242195E-01
  -2.6255299868828808E-01  -2.6110466687988798E-01  -2.5965622423145063E-01  -2.5820767080715740E-01  -2.5675900667113882E-01
  -2.5531023188747914E-01  -2.5386134652021053E-01  -2.5241235063331718E-01  -2.5096324429073852E-01  -2.4951402755636068E-01
  -2.4806470049402438E-01  -2.4661526316752033E-01  -2.4516571564058873E-01  -2.4371605797692683E-01  -2.4226629024017868E-01
  -2.4081641249394228E-01  -2.3936642480176759E-01  -2.3791632722715317E-01  -2.3646611983355170E-01  -2.3501580268437194E-01
  -2.3356537584296652E-01  -2.3211483937264438E-01  -2.3066419333666971E-01  -2.2921343779825062E-01  -2.2776257282055473E-01
  -2.2631159846669913E-01  -2.2486051479974897E-01  -2.2340932188273102E-01  -2.2195801977861485E-01  -2.2050660855032983E-01
  -2.1905508826075376E-01  -2.1760345897271471E-01  -2.1615172074899935E-01  -2.1469987365234516E-01  -2.1324791774543594E-01
  -2.1179585309091556E-01  -2.1034367975137924E-01  -2.0889139778937132E-01  -2.0743900726739375E-01  -2.0598650824789672E-01
  -2.0453390079328682E-01  -2.0308118496592115E-01  -2.0162836082811078E-01  -2.0017542844211947E-01  -1.9872238787016749E-01
  -1.9726923917442254E-01  -1.9581598241700673E-01  -1.9436261766000126E-01  -1.9290914496542941E-01  -1.9145556439528066E-01
  -1.9000187601148999E-01  -1.8854807987594527E-01  -1.8709417605049208E-01  -1.8564016459692434E-01  -1.8418604557699619E-01
  -1.8273181905240943E-01  -1.8127748508482261E-01  -1.7982304373584432E-01  -1.7836849506704425E-01  -1.7691383913993758E-01
  -1.7545907601599722E-01  -1.7400420575665171E-01  -1.7254922842327783E-01  -1.7109414407721441E-01  -1.6963895277974497E-01
  -1.6818365459211362E-01  -1.6672824957551727E-01  -1.6527273779110507E-01  -1.6381711929998236E-01  -1.6236139416320905E-01
  -1.6090556244179577E-01  -1.5944962419671108E-01  -1.5799357948887854E-01  -1.5653742837917234E-01  -1.5508117092841994E-01
  -1.5362480719741367E-01  -1.5216833724688689E-01  -1.5071176113753595E-01  -1.4925507893000878E-01  -1.4779829068490971E-01
  -1.4634139646279795E-01  -1.4488439632418273E-01  -1.4342729032953436E-01  -1.4197007853927462E-01  -1.4051276101378191E-01
  -1.3905533781338539E-01  -1.3759780899837729E-01  -1.3614017462899497E-01  -1.3468243476543923E-01  -1.3322458946786062E-01
  -1.3176663879636530E-01  -1.3030858281101962E-01  -1.2885042157183810E-01  -1.2739215513879765E-01  -1.2593378357182283E-01
  -1.2447530693080110E-01  -1.2301672527556892E-01  -1.2155803866592486E-01  -1.2009924716161614E-01  -1.1864035082234847E-01
  -1.1718134970778339E-01  -1.1572224387753959E-01  -1.1426303339118883E-01  -1.1280371830826048E-01  -1.1134429868823539E-01
  -1.0988477459055934E-01  -1.0842514607462310E-01  -1.0696541319977969E-01  -1.0550557602533749E-01  -1.0404563461056061E-01
  -1.0258558901466788E-01  -1.0112543929683426E-01  -9.9665185516192828E-02  -9.8204827731830091E-02  -9.6744366002792181E-02
  -9.5283800388077086E-02  -9.3823130946644698E-02  -9.2362357737404185E-02  -9.0901480819228081E-02  -8.9440500250941496E-02
  -8.7979416091323343E-02  -8.6518228399114466E-02  -8.5056937233010999E-02  -8.3595542651664315E-02  -8.2134044713681395E-02
  -8.0672443477629988E-02  -7.9210739002026784E-02  -7.7748931345356598E-02  -7.6287020566049621E-02  -7.4825006722498533E-02
  -7.3362889873053741E-02  -7.1900670076020579E-02  -7.0438347389661468E-02  -6.8975921872197157E-02  -6.7513393581801848E-02
